{"learner":{"attributes":{"best_iteration":"87","best_ntree_limit":"88","scikit_learn":"{\"use_label_encoder\": null, \"n_estimators\": 88, \"objective\": \"binary:logistic\", \"max_depth\": 4, \"max_leaves\": 28, \"max_bin\": 140, \"grow_policy\": \"lossguide\", \"learning_rate\": null, \"verbosity\": null, \"booster\": \"gbtree\", \"tree_method\": \"approx\", \"gamma\": null, \"min_child_weight\": 20, \"max_delta_step\": null, \"subsample\": 0.8, \"sampling_method\": null, \"colsample_bytree\": 0.4, \"colsample_bylevel\": null, \"colsample_bynode\": null, \"reg_alpha\": null, \"reg_lambda\": null, \"scale_pos_weight\": 9, \"base_score\": null, \"missing\": NaN, \"num_parallel_tree\": null, \"random_state\": 42, \"n_jobs\": null, \"monotone_constraints\": null, \"interaction_constraints\": null, \"importance_type\": null, \"gpu_id\": null, \"validate_parameters\": null, \"predictor\": null, \"enable_categorical\": true, \"feature_types\": null, \"max_cat_to_onehot\": null, \"max_cat_threshold\": null, \"eval_metric\": null, \"early_stopping_rounds\": null, \"callbacks\": null, \"kwargs\": {\"eta\": 0.00039413682468496394}, \"classes_\": [0.0, 1.0], \"n_classes_\": 2, \"_estimator_type\": \"classifier\"}"},"feature_names":["model_risk_v7_stongyong_score","omriskscoregeneral","als_m12_id_nbank_orgnum","debt_pressure_index","v6_seq_online","als_lst_id_nbank_inteday","als_m3_id_nbank_max_inteday","als_m6_id_nbank_max_inteday","als_lst_id_nbank_consnum","als_m12_id_nbank_max_inteday","als_m3_id_max_inteday","als_m12_id_min_inteday","actual_age","gender","degree","card_num"],"feature_types":["float","float","float","float","float","float","float","float","float","float","float","float","float","c","c","c"],"gradient_booster":{"model":{"gbtree_model_param":{"num_parallel_tree":"1","num_trees":"88","size_leaf_vector":"0"},"tree_info":[0,0,0,0,0,0,0,0,0,0,0,0,0,0,0,0,0,0,0,0,0,0,0,0,0,0,0,0,0,0,0,0,0,0,0,0,0,0,0,0,0,0,0,0,0,0,0,0,0,0,0,0,0,0,0,0,0,0,0,0,0,0,0,0,0,0,0,0,0,0,0,0,0,0,0,0,0,0,0,0,0,0,0,0,0,0,0,0],"trees":[{"base_weights":[1.2488023E0,1.4104613E0,7.1240105E-2,4.8730963E-1,1.4441725E0,3.7984496E-1,-5.8196723E-1,6.985075E-1,-2.0765027E-1,1.2971592E-4,-1.005988E0,1.4754229E0,8.888889E-1,-5.289282E-4,-9.577157E-5,6.210132E-4,5.464972E-4,4.4823406E-4,1.674376E-4,4.8214794E-4,2.2372882E-1,4.9267102E-5,-2.80755E-4,2.1000342E-4,4.5921237E-4,2.0436723E-4,-1.1465798E-4],"categories":[0,1,3,4,0,0,0],"categories_nodes":[3,6,7,11],"categories_segments":[0,4,5,6],"categories_sizes":[4,1,1,1],"default_left":[0,0,0,1,0,0,1,1,0,0,0,1,0,0,0,0,0,0,0,0,0,0,0,0,0,0,0],"id":0,"left_children":[1,3,5,19,11,7,9,17,21,-1,13,15,23,-1,-1,-1,-1,-1,-1,-1,25,-1,-1,-1,-1,-1,-1],"loss_changes":[5.9592773E2,8.49707E1,7.6620995E1,1.8834642E1,4.4769043E1,4.8445923E1,4.74618E1,1.9630142E1,1.5450192E1,0E0,2.1080772E1,2.0186035E1,1.354216E1,0E0,0E0,0E0,0E0,0E0,0E0,0E0,1.1339451E1,0E0,0E0,0E0,0E0,0E0,0E0],"parents":[2147483647,0,0,1,1,2,2,5,5,6,6,4,4,10,10,11,11,7,7,3,3,8,8,12,12,20,20],"right_children":[2,4,6,20,12,8,10,18,22,-1,14,16,24,-1,-1,-1,-1,-1,-1,-1,26,-1,-1,-1,-1,-1,-1],"split_conditions":[4E0,2.6E1,6E0,NaN,3.1E1,3E1,NaN,NaN,5E0,1.2971592E-4,3.1E1,NaN,1.6E1,-5.289282E-4,-9.577157E-5,6.210132E-4,5.464972E-4,4.4823406E-4,1.674376E-4,4.8214794E-4,2.6E1,4.9267102E-5,-2.80755E-4,2.1000342E-4,4.5921237E-4,2.0436723E-4,-1.1465798E-4],"split_indices":[2,12,2,14,3,3,13,13,2,0,10,13,10,0,0,0,0,0,0,0,3,0,0,0,0,0,0],"split_type":[0,0,0,1,0,0,1,1,0,0,0,1,0,0,0,0,0,0,0,0,0,0,0,0,0,0,0],"sum_hessian":[3.13E3,2.752E3,3.78E2,9.75E1,2.6545E3,2.57E2,1.21E2,1.665E2,9.05E1,3.85E1,8.25E1,2.5115E3,1.43E2,5.675E1,2.575E1,1.1725E3,1.339E3,6.275E1,1.0375E2,2.475E1,7.275E1,5.5E1,3.55E1,6.375E1,7.925E1,4.625E1,2.65E1],"tree_param":{"num_deleted":"0","num_feature":"16","num_nodes":"27","size_leaf_vector":"0"}},{"base_weights":[1.2623314E0,1.3634533E0,2.955416E-1,1.4465775E0,7.9651505E-1,-1.3368282E-1,9.1324985E-1,1.509205E0,1.0694951E0,1.8647043E-1,-1.1313349E0,2.1379543E-4,5.384348E-4,6.031539E-4,2.9337764E-4,5.401223E-4,6.790754E-1,1.547936E-4,3.679761E-4,1.7375832E-4,-5.9599428E-5,5.470776E-1,1.1464086E0,-6.017286E-4,-2.5664954E-4,3.020726E-4,5.3969474E-4,3.0210978E-4,8.337806E-5],"categories":[0,5,0,3,4,5],"categories_nodes":[1,9],"categories_segments":[0,2],"categories_sizes":[2,4],"default_left":[0,1,0,0,0,0,0,0,0,1,0,0,0,0,0,0,0,0,0,0,0,0,0,0,0,0,0,0,0],"id":1,"left_children":[1,3,5,7,15,9,21,13,11,19,23,-1,-1,-1,-1,-1,17,-1,-1,-1,-1,27,25,-1,-1,-1,-1,-1,-1],"loss_changes":[3.1085205E2,1.3466602E2,8.039185E1,5.7714844E1,2.4056473E1,5.7543533E1,9.98082E0,3.3608887E1,5.5734344E1,1.1813892E1,7.3114014E0,0E0,0E0,0E0,0E0,0E0,2.220993E1,0E0,0E0,0E0,0E0,3.5375767E0,5.3030624E0,0E0,0E0,0E0,0E0,0E0,0E0],"parents":[2147483647,0,0,1,1,2,2,3,3,5,5,8,8,7,7,4,4,16,16,9,9,6,6,10,10,22,22,21,21],"right_children":[2,4,6,8,16,10,22,14,12,20,24,-1,-1,-1,-1,-1,18,-1,-1,-1,-1,28,26,-1,-1,-1,-1,-1,-1],"split_conditions":[3.1E1,NaN,1E0,5E0,1.9E1,3.7E1,7E0,2E0,1E0,NaN,4.6E1,2.1379543E-4,5.384348E-4,6.031539E-4,2.9337764E-4,5.401223E-4,1E0,1.547936E-4,3.679761E-4,1.7375832E-4,-5.9599428E-5,1.9E1,3.2E1,-6.017286E-4,-2.5664954E-4,3.020726E-4,5.3969474E-4,3.0210978E-4,8.337806E-5],"split_indices":[3,15,11,6,3,3,11,8,11,15,7,0,0,0,0,0,11,0,0,0,0,6,3,0,0,0,0,0,0],"split_type":[0,1,0,0,0,0,0,0,0,1,0,0,0,0,0,0,0,0,0,0,0,0,0,0,0,0,0,0,0],"sum_hessian":[3.1827498E3,2.8809998E3,3.0175E2,2.5112498E3,3.6974997E2,1.785E2,1.2324999E2,2.1509998E3,3.6024997E2,1.3575E2,4.2749996E1,1.3074998E2,2.2949998E2,2.0922498E3,5.8749996E1,6.0999992E1,3.0874997E2,1.4649998E2,1.6224998E2,7.725E1,5.85E1,4.9249996E1,7.4E1,2.225E1,2.0499998E1,2.9E1,4.5E1,2.9E1,2.0249998E1],"tree_param":{"num_deleted":"0","num_feature":"16","num_nodes":"29","size_leaf_vector":"0"}},{"base_weights":[1.2496645E0,1.40809E0,1.8849139E-1,5.1542395E-1,-4.9326834E-1,1.4446201E0,7.074707E-1,7.895922E-1,-1.3243867E-1,1.6690973E-4,4.8809592E-4,-4.266428E-2,-9.803117E-1,2.5418016E-1,1.1472722E0,1.4808062E0,1.1971505E0,-3.1678358E-4,1.391425E-4,6.494446E-4,5.662595E-4,-2.9655264E-4,4.217836E-5,-6.037168E-4,-2.5319238E-4,2.938857E-4,5.8417546E-4,5.6522764E-4,4.256372E-4,2.1185384E-4,-2.3647928E-5],"categories":[0,4,0,1,3,4],"categories_nodes":[5,15],"categories_segments":[0,2],"categories_sizes":[2,4],"default_left":[0,0,0,0,0,1,0,0,0,0,0,0,0,0,0,1,0,0,0,0,0,0,0,0,0,0,0,0,0,0,0],"id":2,"left_children":[1,5,3,7,11,15,13,9,21,-1,-1,17,23,29,25,19,27,-1,-1,-1,-1,-1,-1,-1,-1,-1,-1,-1,-1,-1,-1],"loss_changes":[5.2627637E2,6.87207E1,9.119313E1,4.917302E1,2.9091988E1,2.1411621E1,2.7020416E1,3.1392853E1,1.2402218E1,0E0,0E0,2.136453E1,1.0895E1,6.1522017E0,8.209099E0,1.4231445E1,7.7701416E0,0E0,0E0,0E0,0E0,0E0,0E0,0E0,0E0,0E0,0E0,0E0,0E0,0E0,0E0],"parents":[2147483647,0,0,2,2,1,1,3,3,7,7,4,4,6,6,5,5,11,11,15,15,8,8,12,12,14,14,16,16,13,13],"right_children":[2,6,4,8,12,16,14,10,22,-1,-1,18,24,30,26,20,28,-1,-1,-1,-1,-1,-1,-1,-1,-1,-1,-1,-1,-1,-1],"split_conditions":[4E0,3.1E1,6E0,3.1E1,6.3E1,NaN,7E0,1E0,4.8E1,1.6690973E-4,4.8809592E-4,3.8E1,9.6E1,3E0,3.3E1,NaN,1E0,-3.1678358E-4,1.391425E-4,6.494446E-4,5.662595E-4,-2.9655264E-4,4.217836E-5,-6.037168E-4,-2.5319238E-4,2.938857E-4,5.8417546E-4,5.6522764E-4,4.256372E-4,2.1185384E-4,-2.3647928E-5],"split_indices":[2,3,2,3,9,14,11,11,9,0,0,9,9,2,3,14,2,0,0,0,0,0,0,0,0,0,0,0,0,0,0],"split_type":[0,0,0,0,0,1,0,0,0,0,0,0,0,0,0,1,0,0,0,0,0,0,0,0,0,0,0,0,0,0,0],"sum_hessian":[3.1309993E3,2.7239993E3,4.0699997E2,2.7524997E2,1.3175E2,2.5879993E3,1.3599998E2,1.9324997E2,8.2E1,1.0749999E2,8.5749985E1,6.899999E1,6.2749996E1,6.774999E1,6.824999E1,2.2534993E3,3.344999E2,2.3249998E1,4.5749996E1,4.6324985E2,1.7902495E3,2.225E1,5.975E1,2.2499998E1,4.025E1,3.2499996E1,3.5749996E1,1.0699997E2,2.2749994E2,3.5249996E1,3.25E1],"tree_param":{"num_deleted":"0","num_feature":"16","num_nodes":"31","size_leaf_vector":"0"}},{"base_weights":[1.2520472E0,1.3949298E0,6.7754585E-1,1.4786994E0,8.6250067E-1,7.71728E-1,-3.6341985E-4,1.506647E0,5.810781E-1,-1.7725395E-4,8.230553E-1,3.6264875E-4,9.160613E-5,1.0092083E0,3.9403918E-1,6.365717E-4,5.5635703E-4,4.301786E-4,6.658337E-5,4.8217754E-4,3.1274295E-4,3.017255E-4,5.7280507E-5],"categories":[0,5,0,3,4,0,0,1,3,4,0,5,0,0],"categories_nodes":[1,4,7,8,10,13,14],"categories_segments":[0,2,5,6,10,12,13],"categories_sizes":[2,3,1,4,2,1,1],"default_left":[0,1,0,0,1,0,0,1,1,0,1,0,0,1,1,0,0,0,0,0,0,0,0],"id":3,"left_children":[1,3,5,7,13,9,-1,15,17,-1,11,-1,-1,19,21,-1,-1,-1,-1,-1,-1,-1,-1],"loss_changes":[2.5614844E2,1.1055127E2,9.4983795E1,5.3436523E1,2.319284E1,3.7453644E1,0E0,1.9361328E1,1.390868E1,0E0,3.234561E1,0E0,0E0,1.1075989E1,7.6036253E0,0E0,0E0,0E0,0E0,0E0,0E0,0E0,0E0],"parents":[2147483647,0,0,1,1,2,2,3,3,5,5,10,10,4,4,7,7,8,8,13,13,14,14],"right_children":[2,4,6,8,14,10,-1,16,18,-1,12,-1,-1,20,22,-1,-1,-1,-1,-1,-1,-1,-1],"split_conditions":[1E0,NaN,2E0,2E0,NaN,1.6E1,-3.6341985E-4,NaN,NaN,-1.7725395E-4,NaN,3.6264875E-4,9.160613E-5,NaN,NaN,6.365717E-4,5.5635703E-4,4.301786E-4,6.658337E-5,4.8217754E-4,3.1274295E-4,3.017255E-4,5.7280507E-5],"split_indices":[6,15,8,8,14,7,0,13,15,0,15,0,0,13,13,0,0,0,0,0,0,0,0],"split_type":[0,1,0,0,1,0,0,1,1,0,1,0,0,1,1,0,0,0,0,0,0,0,0],"sum_hessian":[3.130998E3,2.5062483E3,6.2474976E2,2.1639985E3,3.4224985E2,5.904998E2,3.4249996E1,2.0979985E3,6.599998E1,2.349999E1,5.669998E2,4.8649982E2,8.049998E1,2.5974988E2,8.249997E1,9.7249927E2,1.1254991E3,2.874999E1,3.724999E1,1.2799993E2,1.3174994E2,3.2249985E1,5.0249985E1],"tree_param":{"num_deleted":"0","num_feature":"16","num_nodes":"23","size_leaf_vector":"0"}},{"base_weights":[1.264912E0,1.3742735E0,1.3377392E-1,1.4009207E0,6.222861E-1,7.6756144E-1,-1.5944102E-1,1.4725496E0,1.1843807E0,1.01101145E-1,-8.132379E-1,1.0998513E0,-4.7473186E-5,6.266046E-4,5.365698E-4,5.826343E-4,4.2584242E-4,4.5685246E-4,2.5415242E-1,3.8964712E-4,-9.6172625E-5,1.2032469E-4,-2.2245853E-4,5.748084E-4,2.3481807E-4,-4.4204583E-4,-1.3016882E-4],"categories":[0,0,0],"categories_nodes":[2,7,18],"categories_segments":[0,1,2],"categories_sizes":[1,1,1],"default_left":[0,0,1,0,0,0,0,1,0,0,0,0,0,0,0,0,0,0,1,0,0,0,0,0,0,0,0],"id":4,"left_children":[1,3,5,7,17,11,9,13,15,21,25,23,-1,-1,-1,-1,-1,-1,19,-1,-1,-1,-1,-1,-1,-1,-1],"loss_changes":[3.9009863E2,5.6773438E1,5.2017067E1,4.1335938E1,1.951752E1,2.6246746E1,3.274522E1,2.4990234E1,1.9646484E1,1.8925074E1,7.782364E0,1.0788452E1,0E0,0E0,0E0,0E0,0E0,0E0,2.2468266E1,0E0,0E0,0E0,0E0,0E0,0E0,0E0,0E0],"parents":[2147483647,0,0,1,1,2,2,3,3,6,6,5,5,7,7,8,8,4,4,18,18,9,9,11,11,10,10],"right_children":[2,4,6,8,18,12,10,14,16,22,26,24,-1,-1,-1,-1,-1,-1,20,-1,-1,-1,-1,-1,-1,-1,-1],"split_conditions":[3.1E1,2E0,NaN,1E0,2.3E1,4.5E1,8.9E1,NaN,3E0,3.7E1,1.58E2,3.3E1,-4.7473186E-5,6.266046E-4,5.365698E-4,5.826343E-4,4.2584242E-4,4.5685246E-4,NaN,3.8964712E-4,-9.6172625E-5,1.2032469E-4,-2.2245853E-4,5.748084E-4,2.3481807E-4,-4.4204583E-4,-1.3016882E-4],"split_indices":[3,8,13,10,3,7,9,13,7,3,9,3,0,0,0,0,0,0,13,0,0,0,0,0,0,0,0],"split_type":[0,0,1,0,0,0,0,1,0,0,0,0,0,0,0,0,0,0,1,0,0,0,0,0,0,0,0],"sum_hessian":[3.1539966E3,2.8757466E3,2.7824994E2,2.7764966E3,9.9249954E1,8.749998E1,1.9074995E2,2.0819973E3,6.944994E2,1.3699997E2,5.3749985E1,6.349998E1,2.3999996E1,1.0067486E3,1.0752488E3,1.7799977E2,5.164996E2,3.9499977E1,5.9749977E1,2.3749989E1,3.599999E1,1.0524998E2,3.1749994E1,3.599999E1,2.7499992E1,3.1999992E1,2.1749992E1],"tree_param":{"num_deleted":"0","num_feature":"16","num_nodes":"27","size_leaf_vector":"0"}},{"base_weights":[1.2577147E0,1.4176898E0,8.4484436E-2,1.088494E0,1.6320934E0,-3.0122378E-1,9.7013426E-1,-1.0207974E0,3.017276E-1,-1.05157785E-1,1.1368017E0,-7.603073E-4,-2.9076796E-4,3.305212E-4,-2.0106489E-5,-3.0271776E-4,2.4943915E-4,5.127053E-4,4.0203985E-4,7.00999E-1,5.570386E-4,3.972966E-4,-6.531428E-7,1.5620489E0,6.816777E-4,3.886747E-4,6.201182E-4],"categories":[0],"categories_nodes":[10],"categories_segments":[0],"categories_sizes":[1],"default_left":[0,0,0,0,0,0,0,0,0,0,1,0,0,0,0,0,0,0,0,0,0,0,0,0,0,0,0],"id":5,"left_children":[1,3,5,9,23,7,19,11,13,15,17,-1,-1,-1,-1,-1,-1,-1,-1,21,-1,-1,-1,25,-1,-1,-1],"loss_changes":[5.9376953E2,1.9475537E2,1.3035728E2,6.3620483E1,8.79541E0,1.15716835E2,1.2815323E1,2.981353E1,2.75969E1,2.1890196E1,1.8943604E1,0E0,0E0,0E0,0E0,0E0,0E0,0E0,0E0,1.5965527E1,0E0,0E0,0E0,4.897461E0,0E0,0E0,0E0],"parents":[2147483647,0,0,1,1,2,2,5,5,3,3,7,7,8,8,9,9,10,10,6,6,19,19,4,4,23,23],"right_children":[2,4,6,10,24,8,20,12,14,16,18,-1,-1,-1,-1,-1,-1,-1,-1,22,-1,-1,-1,26,-1,-1,-1],"split_conditions":[4E0,7.04E2,1E0,5.6E2,7.87E2,6.42E2,7E0,5.48E2,5E0,9E0,NaN,-7.603073E-4,-2.9076796E-4,3.305212E-4,-2.0106489E-5,-3.0271776E-4,2.4943915E-4,5.127053E-4,4.0203985E-4,6.77E2,5.570386E-4,3.972966E-4,-6.531428E-7,2.6E1,6.816777E-4,3.886747E-4,6.201182E-4],"split_indices":[2,1,11,1,1,1,11,1,2,11,13,0,0,0,0,0,0,0,0,1,0,0,0,12,0,0,0],"split_type":[0,0,0,0,0,0,0,0,0,0,1,0,0,0,0,0,0,0,0,0,0,0,0,0,0,0,0],"sum_hessian":[3.1632446E3,2.7834949E3,3.7974982E2,1.1002482E3,1.6832467E3,2.649999E2,1.14749886E2,1.2049997E2,1.4449995E2,4.2749935E1,1.0574982E3,2.7249992E1,9.324998E1,5.674997E1,8.7749985E1,2.2499968E1,2.0249966E1,4.3549918E2,6.21999E2,7.299993E1,4.1749954E1,5.0499954E1,2.249998E1,9.892481E2,6.939986E2,2.0749968E1,9.6849817E2],"tree_param":{"num_deleted":"0","num_feature":"16","num_nodes":"27","size_leaf_vector":"0"}},{"base_weights":[1.259172E0,6.3381094E-1,1.4656293E0,8.333572E-1,-2.6062793E-1,1.5187337E0,7.594132E-1,-7.5128645E-4,2.3352074E-2,4.9634063E-1,1.1175767E0,-2.5182992E-4,2.5287166E-4,1.3675513E0,1.6651667E0,-1.3141753E-4,3.9931134E-4,4.945197E-4,1.1685483E-4,3.5240537E-1,1.1517178E0,-4.0570216E-5,2.8485942E-4,4.9061363E-4,5.847589E-4,1.8141819E-4,5.4301677E-4,6.727591E-4,5.58604E-4],"categories":[],"categories_nodes":[],"categories_segments":[],"categories_sizes":[],"default_left":[0,0,0,0,0,0,0,0,0,0,0,0,0,0,0,0,0,0,0,0,0,0,0,0,0,0,0,0,0],"id":6,"left_children":[1,3,5,9,7,13,19,-1,15,11,17,-1,-1,23,27,-1,-1,-1,-1,21,25,-1,-1,-1,-1,-1,-1,-1,-1],"loss_changes":[4.1235254E2,1.4233319E2,8.907031E1,6.1826233E1,6.826987E1,4.7233887E1,2.6778107E1,0E0,4.465633E1,4.9836052E1,3.9313446E1,0E0,0E0,1.3916992E1,9.2907715E0,0E0,0E0,0E0,0E0,1.4407873E1,1.2844559E1,0E0,0E0,0E0,0E0,0E0,0E0,0E0,0E0],"parents":[2147483647,0,0,1,1,2,2,4,4,3,3,9,9,5,5,8,8,10,10,6,6,19,19,13,13,20,20,14,14],"right_children":[2,4,6,10,8,14,20,-1,16,12,18,-1,-1,24,28,-1,-1,-1,-1,22,26,-1,-1,-1,-1,-1,-1,-1,-1],"split_conditions":[6.55E2,3.1E1,3.1E1,1E0,5.48E2,7.53E2,1E0,-7.5128645E-4,3E0,5.59E2,1.28E2,-2.5182992E-4,2.5287166E-4,3E0,9E0,-1.3141753E-4,3.9931134E-4,4.945197E-4,1.1685483E-4,1.9E1,7.07E2,-4.0570216E-5,2.8485942E-4,4.9061363E-4,5.847589E-4,1.8141819E-4,5.4301677E-4,6.727591E-4,5.58604E-4],"split_indices":[1,3,3,11,1,1,11,0,11,1,5,0,0,11,10,0,0,0,0,5,1,0,0,0,0,0,0,0,0],"split_type":[0,0,0,0,0,0,0,0,0,0,0,0,0,0,0,0,0,0,0,0,0,0,0,0,0,0,0,0,0],"sum_hessian":[3.1999922E3,7.952486E2,2.4047437E3,6.5024866E2,1.4499994E2,2.2354937E3,1.6924988E2,2.0499989E1,1.2449995E2,2.9874948E2,3.514992E2,3.3499973E1,2.6524948E2,1.1049972E3,1.1304966E3,9.199998E1,3.249997E1,3.0074933E2,5.0749878E1,8.399997E1,8.524991E1,3.799999E1,4.5999985E1,5.4274866E2,5.622485E2,2.1749989E1,6.3499924E1,9.62497E2,1.6799963E2],"tree_param":{"num_deleted":"0","num_feature":"16","num_nodes":"29","size_leaf_vector":"0"}},{"base_weights":[1.2467879E0,1.5030819E0,9.3435705E-1,1.1094593E0,3.9008462E-1,1.593657E0,1.0798796E0,1.2183702E0,6.0878646E-1,5.366475E-1,-3.729798E-1,2.986782E-4,-2.5088395E-4,5.698763E-4,4.1796447E-4,1.0723604E-4,1.1844054E0,-1.2133693E-4,2.4560152E-4,4.441734E-5,-4.382396E-4,5.111226E-4,2.1924045E-4,1.6340836E0,1.271568E0,6.024381E-4,3.7157952E-4,6.6697E-4,6.044131E-4],"categories":[0,5,0,5,0,5],"categories_nodes":[3,4,5],"categories_segments":[0,2,4],"categories_sizes":[2,2,2],"default_left":[0,0,0,1,1,1,0,0,0,0,0,0,0,0,0,0,0,0,0,0,0,0,0,0,0,0,0,0,0],"id":7,"left_children":[1,5,3,7,9,23,15,13,11,17,19,-1,-1,-1,-1,-1,21,-1,-1,-1,-1,-1,-1,27,25,-1,-1,-1,-1],"loss_changes":[2.503081E2,6.4410645E1,1.3482605E2,5.7781128E1,3.9007496E1,1.6398438E1,2.5620667E1,3.0100952E1,3.6437393E1,2.1483315E1,2.0401642E1,0E0,0E0,0E0,0E0,0E0,1.8466919E1,0E0,0E0,0E0,0E0,0E0,0E0,4.757324E0,1.2307953E1,0E0,0E0,0E0,0E0],"parents":[2147483647,0,0,2,2,1,1,3,3,4,4,8,8,7,7,6,6,9,9,10,10,16,16,5,5,24,24,23,23],"right_children":[2,6,4,8,10,24,16,14,12,18,20,-1,-1,-1,-1,-1,22,-1,-1,-1,-1,-1,-1,28,26,-1,-1,-1,-1],"split_conditions":[3.3E1,4E0,1E0,NaN,NaN,NaN,2.5E1,2.2E1,5.2E1,1.4E1,4.4E1,2.986782E-4,-2.5088395E-4,5.698763E-4,4.1796447E-4,1.0723604E-4,3E1,-1.2133693E-4,2.4560152E-4,4.441734E-5,-4.382396E-4,5.111226E-4,2.1924045E-4,1E0,2.6E1,6.024381E-4,3.7157952E-4,6.6697E-4,6.044131E-4],"split_indices":[4,6,6,15,15,15,7,5,4,6,4,0,0,0,0,0,4,0,0,0,0,0,0,9,4,0,0,0,0],"split_type":[0,0,0,1,1,1,0,0,0,0,0,0,0,0,0,0,0,0,0,0,0,0,0,0,0,0,0,0,0],"sum_hessian":[3.1424897E3,1.7242438E3,1.4182458E3,1.0722465E3,3.4599945E2,1.4179943E3,3.0624945E2,8.794969E2,1.9274954E2,2.904995E2,5.5499924E1,1.7249957E2,2.0249975E1,3.5699866E2,5.224982E2,3.5499947E1,2.707495E2,2.6749958E1,2.6374954E2,3.399995E1,2.1499975E1,2.2874957E2,4.199994E1,1.2562448E3,1.6174951E2,8.874971E1,7.2999794E1,7.8599664E2,4.7024814E2],"tree_param":{"num_deleted":"0","num_feature":"16","num_nodes":"29","size_leaf_vector":"0"}},{"base_weights":[1.2614455E0,8.2916564E-1,1.5737357E0,4.4727528E-1,1.1676317E0,7.937142E-1,-1.3005987E-1,-5.3552474E-4,6.2838306E-5,1.6538875E0,1.261568E0,1.2440042E0,3.9059258E-1,-2.9914308E-5,3.5916193E-4,9.1791624E-1,1.5407355E0,-1.8423093E-4,3.5433623E-4,5.645049E-4,2.93645E-4,1.8061444E-4,5.008511E-4,1.7206303E0,1.5534897E0,6.4458686E-4,4.6118602E-4,4.873242E-4,6.2005705E-4,6.2001415E-4,6.894614E-4],"categories":[0,1,3,4],"categories_nodes":[15],"categories_segments":[0],"categories_sizes":[4],"default_left":[0,0,0,0,0,0,0,0,0,0,0,0,0,0,0,1,0,0,0,0,0,0,0,0,0,0,0,0,0,0,0],"id":8,"left_children":[1,3,9,5,11,13,7,-1,-1,23,15,21,17,-1,-1,19,25,-1,-1,-1,-1,-1,-1,29,27,-1,-1,-1,-1,-1,-1],"loss_changes":[4.2778076E2,1.7206744E2,4.4058105E1,1.2591008E2,4.148529E1,4.0267456E1,8.442621E1,0E0,0E0,7.1384277E0,3.513733E1,1.2943298E1,2.8666695E1,0E0,0E0,1.4338379E1,5.4132385E0,0E0,0E0,0E0,0E0,0E0,0E0,9.2871094E-1,1.7734375E0,0E0,0E0,0E0,0E0,0E0,0E0],"parents":[2147483647,0,0,1,1,3,3,6,6,2,2,4,4,5,5,10,10,12,12,15,15,11,11,9,9,16,16,24,24,23,23],"right_children":[2,4,10,6,12,14,8,-1,-1,24,16,22,18,-1,-1,20,26,-1,-1,-1,-1,-1,-1,30,28,-1,-1,-1,-1,-1,-1],"split_conditions":[7.03E2,1E0,7E0,1E0,5E1,2.8E1,5.79E2,-5.3552474E-4,6.2838306E-5,3E1,4E0,2.5E1,3.3E1,-2.9914308E-5,3.5916193E-4,NaN,3.5E1,-1.8423093E-4,3.5433623E-4,5.645049E-4,2.93645E-4,1.8061444E-4,5.008511E-4,7.48E2,2.8E1,6.4458686E-4,4.6118602E-4,4.873242E-4,6.2005705E-4,6.2001415E-4,6.894614E-4],"split_indices":[1,11,10,10,4,12,1,0,0,4,11,12,12,0,0,14,4,0,0,0,0,0,0,1,12,0,0,0,0,0,0],"split_type":[0,0,0,0,0,0,0,0,0,0,0,0,0,0,0,1,0,0,0,0,0,0,0,0,0,0,0,0,0,0,0],"sum_hessian":[3.1774863E3,1.3342456E3,1.8432406E3,6.2799835E2,7.062473E2,3.9224863E2,2.3574971E2,4.4249966E1,1.9149976E2,1.463242E3,3.7999866E2,6.424975E2,6.37498E1,4.6749893E1,3.4549875E2,1.722496E2,2.0774907E2,2.3749939E1,3.9999863E1,4.1499886E1,1.3074973E2,2.174993E1,6.2074756E2,8.6924506E2,5.9399695E2,1.6274924E2,4.499982E1,3.849983E1,5.5549713E2,1.5049922E2,7.1874585E2],"tree_param":{"num_deleted":"0","num_feature":"16","num_nodes":"31","size_leaf_vector":"0"}},{"base_weights":[1.2477673E0,8.313903E-1,1.5622308E0,1.0068314E0,-1.840416E-1,6.6381353E-1,1.260163E0,-1.3166887E0,1.2227562E-1,4.8381693E-4,1.7963414E-4,-9.4700146E-5,3.557709E-4,4.2196384E-4,5.730888E-4,1.590103E0,1.1450478E0,5.5758363E-1,1.5216248E0,1.511791E0,1.694365E0,5.31756E-5,3.5486955E-4,5.6174595E-4,6.273042E-4,6.7639194E-4,5.505207E-4,4.516882E-4,6.609883E-4,-4.257555E-4,-5.882955E-4],"categories":[0,3,4],"categories_nodes":[20],"categories_segments":[0],"categories_sizes":[3],"default_left":[0,0,0,0,0,0,0,0,0,0,0,0,0,0,0,0,0,0,0,0,1,0,0,0,0,0,0,0,0,0,0],"id":9,"left_children":[1,3,15,5,7,9,13,29,11,-1,-1,-1,-1,-1,-1,19,17,21,27,23,25,-1,-1,-1,-1,-1,-1,-1,-1,-1,-1],"loss_changes":[4.0787207E2,2.401059E2,1.8867676E1,9.89646E1,6.929057E1,5.6908005E1,2.2680176E1,1.5569305E-1,4.484843E1,0E0,0E0,0E0,0E0,0E0,0E0,1.1035645E1,2.4592422E1,6.615678E0,2.1354675E0,4.3620605E0,2.1767578E0,0E0,0E0,0E0,0E0,0E0,0E0,0E0,0E0,0E0,0E0],"parents":[2147483647,0,0,1,1,3,3,4,4,5,5,8,8,6,6,2,2,16,16,15,15,17,17,19,19,20,20,18,18,7,7],"right_children":[2,4,16,6,8,10,14,30,12,-1,-1,-1,-1,-1,-1,20,18,22,28,24,26,-1,-1,-1,-1,-1,-1,-1,-1,-1,-1],"split_conditions":[7.04E2,3.1E1,3.1E1,1E0,5.78E2,1E0,6.55E2,3.4E1,2E0,4.8381693E-4,1.7963414E-4,-9.4700146E-5,3.557709E-4,4.2196384E-4,5.730888E-4,7.86E2,1E0,7.39E2,7E0,3E0,NaN,5.31756E-5,3.5486955E-4,5.6174595E-4,6.273042E-4,6.7639194E-4,5.505207E-4,4.516882E-4,6.609883E-4,-4.257555E-4,-5.882955E-4],"split_indices":[1,3,3,11,1,8,1,3,11,0,0,0,0,0,0,1,11,1,11,11,14,0,0,0,0,0,0,0,0,0,0],"split_type":[0,0,0,0,0,0,0,0,0,0,0,0,0,0,0,0,0,0,0,0,1,0,0,0,0,0,0,0,0,0,0],"sum_hessian":[3.1239832E3,1.3457448E3,1.7782384E3,1.1474949E3,1.9824979E2,4.8899823E2,6.584967E2,4.1499954E1,1.5674983E2,1.3049934E2,3.584989E2,1.0749994E2,4.9249893E1,3.362484E2,3.2224826E2,1.6642388E3,1.13999725E2,4.5499954E1,6.849977E1,9.5924384E2,7.049949E2,2.0999979E1,2.4499975E1,4.6924716E2,4.899967E2,6.5249524E2,5.249964E1,2.2499945E1,4.599982E1,2.0749989E1,2.0749968E1],"tree_param":{"num_deleted":"0","num_feature":"16","num_nodes":"31","size_leaf_vector":"0"}},{"base_weights":[1.2586073E0,1.3681926E0,1.7209359E-1,1.5530717E0,1.171364E0,4.2606038E-1,-1.0592767E0,8.294903E-1,-2.694888E-1,1.213704E0,3.8243112E-1,3.7270028E-4,-3.1336318E-4,5.1312114E-4,3.7461458E-4,1.6286559E0,1.2816298E0,3.815717E-5,-4.0114814E-4,4.5584713E-4,1.7117128E-4,6.774733E-4,6.031778E-4,-2.760182E-4,-5.8857317E-4,5.3808047E-4,4.3077438E-4],"categories":[],"categories_nodes":[],"categories_segments":[],"categories_sizes":[],"default_left":[0,0,0,0,0,0,0,0,0,0,0,0,0,0,0,0,0,0,0,0,0,0,0,0,0,0,0],"id":10,"left_children":[1,3,5,15,9,7,23,19,17,13,11,-1,-1,-1,-1,21,25,-1,-1,-1,-1,-1,-1,-1,-1,-1,-1],"loss_changes":[3.761294E2,1.02663086E2,9.1376564E1,2.8226074E1,4.6125E1,6.8059746E1,6.744583E0,1.9306908E1,2.4630714E1,2.9478638E1,4.882933E1,0E0,0E0,0E0,0E0,7.5842285E0,3.6566772E0,0E0,0E0,0E0,0E0,0E0,0E0,0E0,0E0,0E0,0E0],"parents":[2147483647,0,0,1,1,2,2,5,5,4,4,10,10,9,9,3,3,8,8,7,7,15,15,6,6,16,16],"right_children":[2,4,6,16,10,8,24,20,18,14,12,-1,-1,-1,-1,22,26,-1,-1,-1,-1,-1,-1,-1,-1,-1,-1],"split_conditions":[3.1E1,3.2E1,3.7E1,1E0,5.5E1,3.8E1,6.3E1,3E1,8.5E1,1E0,4.2E1,3.7270028E-4,-3.1336318E-4,5.1312114E-4,3.7461458E-4,2.5E1,2.7E1,3.815717E-5,-4.0114814E-4,4.5584713E-4,1.7117128E-4,6.774733E-4,6.031778E-4,-2.760182E-4,-5.8857317E-4,5.3808047E-4,4.3077438E-4],"split_indices":[3,4,3,10,4,4,9,4,9,10,5,0,0,0,0,4,3,0,0,0,0,0,0,0,0,0,0],"split_type":[0,0,0,0,0,0,0,0,0,0,0,0,0,0,0,0,0,0,0,0,0,0,0,0,0,0,0],"sum_hessian":[3.1599788E3,2.8702292E3,2.8974945E2,1.4764879E3,1.3937413E3,2.4074951E2,4.8999943E1,1.5224965E2,8.849986E1,1.3222417E3,7.149969E1,4.849978E1,2.2999912E1,9.874932E2,3.347484E2,1.1509899E3,3.2549802E2,5.9999905E1,2.8499958E1,8.22498E1,6.999984E1,5.9149457E2,5.5949524E2,2.8249973E1,2.074997E1,2.212486E2,1.0424943E2],"tree_param":{"num_deleted":"0","num_feature":"16","num_nodes":"27","size_leaf_vector":"0"}},{"base_weights":[1.2623181E0,1.5299581E0,6.0616875E-1,8.9265156E-1,-3.0117118E-1,1.5952398E0,7.730234E-1,1.2355095E0,3.937643E-2,-1.1861512E-1,-6.2982447E-4,4.0257873E-5,-5.2770576E-4,1.0178598E0,3.3813795E-1,-3.5383902E-4,2.2482018E-4,2.0786769E-4,-2.5804472E-4,1.6958498E0,1.4716283E0,4.217677E-4,1.3648668E-4,5.9594814E-4,4.2902253E-4,4.2864343E-4,6.1038084E-4,6.9577736E-4,6.409971E-4],"categories":[],"categories_nodes":[],"categories_segments":[],"categories_sizes":[],"default_left":[0,0,0,0,0,0,0,0,0,0,0,0,0,0,0,0,0,0,0,0,0,0,0,0,0,0,0,0,0],"id":11,"left_children":[1,5,3,13,9,19,7,25,15,11,-1,-1,-1,21,17,-1,-1,-1,-1,27,23,-1,-1,-1,-1,-1,-1,-1,-1],"loss_changes":[5.6071826E2,1.10984375E2,2.4155435E2,4.8655396E1,5.2721992E1,2.3493652E1,6.178881E1,3.4934082E0,3.6094013E1,5.3205334E1,0E0,0E0,0E0,1.9812622E1,2.5055073E1,0E0,0E0,0E0,0E0,2.6608887E0,1.2986328E1,0E0,0E0,0E0,0E0,0E0,0E0,0E0,0E0],"parents":[2147483647,0,0,2,2,1,1,6,6,4,4,9,9,3,3,8,8,14,14,5,5,13,13,20,20,7,7,19,19],"right_children":[2,6,4,14,10,20,8,26,16,12,-1,-1,-1,22,18,-1,-1,-1,-1,28,24,-1,-1,-1,-1,-1,-1,-1,-1],"split_conditions":[4.1E1,4E0,4E0,6.1E1,3.7E1,2.6E1,2.9E1,9.6E1,3.6E1,2E0,-6.2982447E-4,4.0257873E-5,-5.2770576E-4,3.1E1,1.09E2,-3.5383902E-4,2.2482018E-4,2.0786769E-4,-2.5804472E-4,1.8E1,3E0,4.217677E-4,1.3648668E-4,5.9594814E-4,4.2902253E-4,4.2864343E-4,6.1038084E-4,6.9577736E-4,6.409971E-4],"split_indices":[0,2,2,0,3,0,0,9,0,8,0,0,0,3,9,0,0,0,0,0,2,0,0,0,0,0,0,0,0],"split_type":[0,0,0,0,0,0,0,0,0,0,0,0,0,0,0,0,0,0,0,0,0,0,0,0,0,0,0,0,0],"sum_hessian":[3.1972239E3,2.269979E3,9.272449E2,7.047453E2,2.2249956E2,2.0887297E3,1.8124931E2,1.1074951E2,7.04998E1,1.959996E2,2.6499958E1,1.6674962E2,2.924998E1,5.74246E2,1.3049936E2,2.5249928E1,4.5249874E1,1.0999946E2,2.0499907E1,1.1444878E3,9.442419E2,5.3224603E2,4.1999912E1,8.514925E2,9.274939E1,7.824964E1,3.249987E1,5.602438E2,5.842441E2],"tree_param":{"num_deleted":"0","num_feature":"16","num_nodes":"29","size_leaf_vector":"0"}},{"base_weights":[1.2561251E0,1.4165787E0,1.0563482E-1,1.5964227E0,9.393968E-1,1.111345E0,-2.491232E-1,-7.207287E-1,9.041629E-1,1.1194488E0,3.7413934E-1,-1.19420205E-4,-4.7809293E-4,2.0064574E-4,-2.6400163E-4,1.6853254E0,1.4816996E0,4.6118826E-4,4.3542503E-5,4.6372454E-4,2.650864E-4,6.213052E-4,8.46629E-1,3.1019546E-4,5.9170305E-4,2.0369145E-4,4.7372511E-4,5.1434047E-4,6.67795E-4],"categories":[],"categories_nodes":[],"categories_segments":[],"categories_sizes":[],"default_left":[0,0,0,0,0,0,0,0,0,0,0,0,0,0,0,0,0,0,0,0,0,0,0,0,0,0,0,0,0],"id":12,"left_children":[1,3,5,15,9,21,7,11,17,19,13,-1,-1,-1,-1,27,23,-1,-1,-1,-1,-1,25,-1,-1,-1,-1,-1,-1],"loss_changes":[5.8567334E2,2.3750195E2,1.3924373E2,1.8117188E1,7.741351E1,1.1190704E1,1.577013E2,4.1892494E1,1.7654877E1,1.399762E1,2.6577717E1,0E0,0E0,0E0,0E0,1.661377E0,1.0923828E1,0E0,0E0,0E0,0E0,0E0,7.2303543E0,0E0,0E0,0E0,0E0,0E0,0E0],"parents":[2147483647,0,0,1,1,2,2,6,6,4,4,7,7,10,10,3,3,8,8,9,9,5,5,16,16,22,22,15,15],"right_children":[2,4,6,16,10,22,8,12,18,20,14,-1,-1,-1,-1,28,24,-1,-1,-1,-1,-1,26,-1,-1,-1,-1,-1,-1],"split_conditions":[4E0,4E1,2.9E1,2.6E1,5.8E1,3.2E1,1E0,6.3E1,3E1,3E1,7.4E1,-1.19420205E-4,-4.7809293E-4,2.0064574E-4,-2.6400163E-4,2.7E1,2.6E1,4.6118826E-4,4.3542503E-5,4.6372454E-4,2.650864E-4,6.213052E-4,7.7E1,3.1019546E-4,5.9170305E-4,2.0369145E-4,4.7372511E-4,5.1434047E-4,6.67795E-4],"split_indices":[2,0,0,0,0,12,11,9,3,3,0,0,0,0,0,12,12,0,0,0,0,0,9,0,0,0,0,0,0],"split_type":[0,0,0,0,0,0,0,0,0,0,0,0,0,0,0,0,0,0,0,0,0,0,0,0,0,0,0,0,0],"sum_hessian":[3.172469E3,2.7839702E3,3.8849887E2,2.0202261E3,7.6374414E2,1.00749504E2,2.8774936E2,2.0449973E2,8.324963E1,5.784952E2,1.8524898E2,1.11499855E2,9.299986E1,1.6449905E2,2.0749924E1,1.1304855E3,8.8974066E2,6.1999664E1,2.1249968E1,5.1149545E2,6.6999695E1,3.474983E1,6.599967E1,2.5499792E1,8.642409E2,3.5499855E1,3.0499817E1,2.9499662E1,1.1009857E3],"tree_param":{"num_deleted":"0","num_feature":"16","num_nodes":"29","size_leaf_vector":"0"}},{"base_weights":[1.2553625E0,1.5333868E0,6.109793E-1,8.185865E-1,-1.7043352E-1,8.900612E-2,-5.6180096E-4,3.9016825E-1,9.662082E-1,-1.12283225E-4,2.8041593E-4,1.6486171E0,1.3640808E0,3.9830178E-4,-8.4473686E-5,-2.8107717E-4,1.0133068E-4,1.3910457E0,1.6791187E-4,6.3285953E-4,5.188886E-4,1.5701836E0,1.7367404E0,6.381632E-4,5.4414925E-4,7.1255263E-4,6.5015897E-4],"categories":[0],"categories_nodes":[22],"categories_segments":[0],"categories_sizes":[1],"default_left":[0,0,0,0,0,0,0,0,0,0,0,0,0,0,0,0,0,0,0,0,0,0,1,0,0,0,0],"id":13,"left_children":[1,11,3,7,5,15,-1,9,13,-1,-1,21,17,-1,-1,-1,-1,19,-1,-1,-1,23,25,-1,-1,-1,-1],"loss_changes":[5.69125E2,4.110498E1,1.559979E2,4.7640533E1,6.6057976E1,2.2936323E1,0E0,4.276792E1,2.9751587E1,0E0,0E0,6.3793945E0,2.2317627E1,0E0,0E0,0E0,0E0,1.1962769E1,0E0,0E0,0E0,4.3308105E0,8.0651855E-1,0E0,0E0,0E0,0E0],"parents":[2147483647,0,0,2,2,4,4,3,3,7,7,1,1,8,8,5,5,12,12,17,17,11,11,21,21,22,22],"right_children":[2,12,4,8,6,16,-1,10,14,-1,-1,22,18,-1,-1,-1,-1,20,-1,-1,-1,24,26,-1,-1,-1,-1],"split_conditions":[4E1,2.7E1,6.1E1,3.1E1,7.3E1,5.48E2,-5.6180096E-4,2.3E1,2E0,-1.12283225E-4,2.8041593E-4,7.93E2,2E0,3.9830178E-4,-8.4473686E-5,-2.8107717E-4,1.0133068E-4,1E0,1.6791187E-4,6.3285953E-4,5.188886E-4,1.17E2,NaN,6.381632E-4,5.4414925E-4,7.1255263E-4,6.5015897E-4],"split_indices":[0,0,0,12,0,1,0,5,8,0,0,1,8,0,0,0,0,5,0,0,0,5,13,0,0,0,0],"split_type":[0,0,0,0,0,0,0,0,0,0,0,0,0,0,0,0,0,0,0,0,0,0,1,0,0,0,0],"sum_hessian":[3.1809631E3,2.2212202E3,9.5974304E2,7.5824384E2,2.014992E2,1.677493E2,3.374991E1,1.9524863E2,5.629952E2,6.2999653E1,1.3224898E2,1.3164807E3,9.047394E2,5.4274524E2,2.0249928E1,2.8499884E1,1.3924942E2,8.7898956E2,2.5749853E1,2.2124693E2,6.577426E2,7.064905E2,6.099902E2,5.554927E2,1.5099779E2,3.249946E2,2.849956E2],"tree_param":{"num_deleted":"0","num_feature":"16","num_nodes":"27","size_leaf_vector":"0"}},{"base_weights":[1.2563486E0,1.5120169E0,6.4423305E-1,9.175165E-1,-2.3709388E-1,-6.4819956E-1,8.671077E-1,1.5739611E0,8.137205E-1,1.1076697E0,3.7714133E-1,1.2137963E0,1.2872398E-1,-1.6913594E-4,-7.5440126E-4,1.6954296E0,1.4430481E0,2.0863499E-4,-1.3066923E-4,-8.5338615E-5,3.2363558E-4,4.790745E-4,7.19899E-5,5.8439106E-4,4.1546236E-4,4.1162653E-4,5.3538487E-4,5.218651E-4,2.889812E-4,6.9505785E-4,6.386165E-4],"categories":[],"categories_nodes":[],"categories_segments":[],"categories_sizes":[],"default_left":[0,0,0,0,0,0,0,0,0,0,0,0,0,0,0,0,0,0,0,0,0,0,0,0,0,0,0,0,0,0,0],"id":14,"left_children":[1,7,3,9,5,13,21,15,11,25,17,27,19,-1,-1,29,23,-1,-1,-1,-1,-1,-1,-1,-1,-1,-1,-1,-1,-1,-1],"loss_changes":[4.9116797E2,9.463672E1,2.2378674E2,7.240851E1,1.0065636E2,4.3895004E1,1.4145187E1,2.9925293E1,4.992617E1,6.892273E0,2.0238066E1,5.1371155E0,1.6552486E1,0E0,0E0,2.5136719E0,1.3655273E1,0E0,0E0,0E0,0E0,0E0,0E0,0E0,0E0,0E0,0E0,0E0,0E0,0E0,0E0],"parents":[2147483647,0,0,2,2,4,4,1,1,3,3,8,8,5,5,7,7,10,10,12,12,6,6,16,16,9,9,11,11,15,15],"right_children":[2,8,4,10,6,14,22,16,12,26,18,28,20,-1,-1,30,24,-1,-1,-1,-1,-1,-1,-1,-1,-1,-1,-1,-1,-1,-1],"split_conditions":[4.1E1,4E0,4E0,5.8E1,1E0,6.4E1,5.3E1,2.5E1,2.9E1,5.3E1,7.1E1,6E0,1E0,-1.6913594E-4,-7.5440126E-4,1.8E1,3E0,2.0863499E-4,-1.3066923E-4,-8.5338615E-5,3.2363558E-4,4.790745E-4,7.19899E-5,5.8439106E-4,4.1546236E-4,4.1162653E-4,5.3538487E-4,5.218651E-4,2.889812E-4,6.9505785E-4,6.386165E-4],"split_indices":[0,2,2,0,11,7,0,0,0,7,0,2,11,0,0,0,2,0,0,0,0,0,0,0,0,0,0,0,0,0,0],"split_type":[0,0,0,0,0,0,0,0,0,0,0,0,0,0,0,0,0,0,0,0,0,0,0,0,0,0,0,0,0,0,0],"sum_hessian":[3.1437083E3,2.2164656E3,9.2724274E2,7.077433E2,2.1949944E2,1.6024976E2,5.9249676E1,2.0347167E3,1.8174889E2,5.227444E2,1.8499889E2,1.1424912E2,6.749977E1,1.377498E2,2.2499962E1,1.049231E3,9.8548566E2,1.52499E2,3.2499886E1,4.549993E1,2.1999838E1,3.8749763E1,2.0499912E1,8.9173676E2,9.37489E1,4.2149536E2,1.0124905E2,9.1499214E1,2.274991E1,5.387398E2,5.1049115E2],"tree_param":{"num_deleted":"0","num_feature":"16","num_nodes":"31","size_leaf_vector":"0"}},{"base_weights":[1.2549136E0,1.4913753E0,9.738501E-1,6.544985E-1,1.2574787E0,1.1695253E0,-1.3517787E-1,1.1324588E-4,-2.9803917E-4,1.5981181E0,1.2431353E0,7.492446E-1,1.507567E0,5.776567E-4,3.5298572E-4,1.3847678E-4,4.3721354E-4,1.3320451E0,8.118295E-1,4.2888388E-4,-1.608045E-5,1.6446519E0,1.2256477E0,6.283965E-4,3.2413434E-4,6.0733437E-4,4.8619727E-4,5.0710095E-4,6.4655597E-4,6.534724E-4,3.9898054E-4],"categories":[0,1,5,0,1,5,0,5,0,1,3,4,5],"categories_nodes":[5,6,9,17],"categories_segments":[0,3,6,8],"categories_sizes":[3,3,2,5],"default_left":[0,0,0,0,0,1,1,0,0,1,0,0,0,0,0,0,0,1,0,0,0,0,0,0,0,0,0,0,0,0,0],"id":15,"left_children":[1,9,3,5,17,13,7,-1,-1,21,11,15,27,-1,-1,-1,-1,25,19,-1,-1,29,23,-1,-1,-1,-1,-1,-1,-1,-1],"loss_changes":[2.090752E2,4.3549072E1,1.3053516E2,2.7844278E2,2.4406006E1,3.2287354E1,7.1321075E1,0E0,0E0,1.8752686E1,6.694507E1,2.5934921E1,7.8269043E0,0E0,0E0,0E0,0E0,1.1581421E1,2.6549934E1,0E0,0E0,7.276367E0,1.9058517E1,0E0,0E0,0E0,0E0,0E0,0E0,0E0,0E0],"parents":[2147483647,0,0,2,2,3,3,6,6,1,1,10,10,5,5,11,11,4,4,18,18,9,9,22,22,17,17,12,12,21,21],"right_children":[2,10,4,6,18,14,8,-1,-1,22,12,16,28,-1,-1,-1,-1,26,20,-1,-1,30,24,-1,-1,-1,-1,-1,-1,-1,-1],"split_conditions":[3.3E1,3E0,1E0,4E0,4.8E1,NaN,NaN,1.1324588E-4,-2.9803917E-4,NaN,1E0,2.1E1,3E1,5.776567E-4,3.5298572E-4,1.3847678E-4,4.3721354E-4,NaN,7.3E1,4.2888388E-4,-1.608045E-5,3.21E2,2.5E1,6.283965E-4,3.2413434E-4,6.0733437E-4,4.8619727E-4,5.0710095E-4,6.4655597E-4,6.534724E-4,3.9898054E-4],"split_indices":[4,7,11,9,4,15,15,0,0,15,11,5,5,0,0,0,0,15,5,0,0,5,4,0,0,0,0,0,0,0,0],"split_type":[0,0,0,0,0,1,1,0,0,1,0,0,0,0,0,0,0,1,0,0,0,0,0,0,0,0,0,0,0,0,0],"sum_hessian":[3.1667017E3,1.7174692E3,1.4492324E3,6.8324286E2,7.659895E2,4.1324408E2,2.6999875E2,1.6099922E2,1.0899954E2,1.1972262E3,5.202431E2,1.8274867E2,3.3749442E2,1.9649689E2,2.1674721E2,8.774952E1,9.4999146E1,6.5449066E2,1.1149885E2,8.399913E1,2.7499714E1,1.0612284E3,1.3599776E2,6.9498695E1,6.649907E1,2.049969E2,4.4949377E2,1.3074803E2,2.0674637E2,1.0377289E3,2.3499569E1],"tree_param":{"num_deleted":"0","num_feature":"16","num_nodes":"31","size_leaf_vector":"0"}},{"base_weights":[1.2536453E0,1.4181103E0,1.3788362E-1,1.5153717E0,5.652196E-1,5.4584455E-1,-8.532934E-1,1.2429624E0,1.6442724E0,6.9735366E-1,-3.70735E-4,1.1544746E0,2.141001E-1,1.6732095E-4,-4.5994224E-4,-7.589562E-4,-5.194744E-1,3.1966064E-4,-2.5152363E-4,-8.301825E-5,-5.9104606E-4,5.52829E-4,4.2024508E-4,6.732094E-4,5.9275475E-4,3.0677725E-4,5.4657605E-4],"categories":[],"categories_nodes":[],"categories_segments":[],"categories_sizes":[],"default_left":[0,0,0,0,0,0,0,0,0,0,0,0,0,0,0,0,0,0,0,0,0,0,0,0,0,0,0],"id":16,"left_children":[1,3,5,7,11,9,15,21,23,17,-1,25,13,-1,-1,-1,19,-1,-1,-1,-1,-1,-1,-1,-1,-1,-1],"loss_changes":[5.8173047E2,2.2840186E2,1.6564618E2,8.504541E1,5.8615173E1,6.596728E1,4.1776016E1,2.1098877E1,1.2474609E1,4.056227E1,0E0,8.181808E0,5.265959E1,0E0,0E0,0E0,2.7684036E1,0E0,0E0,0E0,0E0,0E0,0E0,0E0,0E0,0E0,0E0],"parents":[2147483647,0,0,1,1,2,2,3,3,5,5,4,4,12,12,6,6,9,9,16,16,7,7,8,8,11,11],"right_children":[2,4,6,8,12,10,16,22,24,18,-1,26,14,-1,-1,-1,20,-1,-1,-1,-1,-1,-1,-1,-1,-1,-1],"split_conditions":[5.3E1,4E0,4E0,7.04E2,2.9E1,1.34E2,5.48E2,3.9E1,2.8E1,7.2E1,-3.70735E-4,6.7E1,7E0,1.6732095E-4,-4.5994224E-4,-7.589562E-4,1.01E2,3.1966064E-4,-2.5152363E-4,-8.301825E-5,-5.9104606E-4,5.52829E-4,4.2024508E-4,6.732094E-4,5.9275475E-4,3.0677725E-4,5.4657605E-4],"split_indices":[0,2,2,1,0,9,1,0,0,0,0,9,2,0,0,0,9,0,0,0,0,0,0,0,0,0,0],"split_type":[0,0,0,0,0,0,0,0,0,0,0,0,0,0,0,0,0,0,0,0,0,0,0,0,0,0,0],"sum_hessian":[3.1701948E3,2.762698E3,4.0749692E2,2.4791997E3,2.8349814E2,2.8899716E2,1.1849974E2,7.997376E2,1.6794622E3,2.627474E2,2.6249783E1,1.0499898E2,1.7849916E2,1.5549919E2,2.2999977E1,2.6999887E1,9.1499855E1,2.4249747E2,2.0249931E1,7.0499886E1,2.0999968E1,4.164929E2,3.8324472E2,1.1469725E3,5.324896E2,4.1749672E1,6.3249302E1],"tree_param":{"num_deleted":"0","num_feature":"16","num_nodes":"27","size_leaf_vector":"0"}},{"base_weights":[1.2482237E0,1.4084047E0,1.4724097E-1,1.0434195E0,1.6327927E0,-5.6374854E-1,6.342274E-1,-9.626318E-1,2.4818463E-4,-9.1594726E-2,1.1078169E0,3.9917268E-4,-4.2106496E-4,-1.4341906E-4,-6.055913E-4,8.719895E-1,9.069297E-2,-2.2618602E-4,4.385322E-4,3.7000768E-4,4.817551E-4,3.832208E-4,1.0175662E-4,1.6859286E0,1.5198398E0,6.307761E-4,6.932397E-4,6.201138E-4,5.363435E-4],"categories":[0],"categories_nodes":[9],"categories_segments":[0],"categories_sizes":[1],"default_left":[0,0,0,0,0,0,0,0,0,1,0,0,0,0,0,0,0,0,0,0,0,0,0,0,0,0,0,0,0],"id":17,"left_children":[1,3,5,9,23,7,15,13,-1,11,19,-1,-1,-1,-1,21,17,-1,-1,-1,-1,-1,-1,25,27,-1,-1,-1,-1],"loss_changes":[5.5746484E2,2.2437158E2,1.3980579E2,7.712109E1,7.6870117E0,7.8796005E1,3.0871712E1,4.1875908E1,0E0,6.3105022E1,1.8151733E1,0E0,0E0,0E0,0E0,1.000103E1,5.0895664E1,0E0,0E0,0E0,0E0,0E0,0E0,4.3745117E0,2.5943604E0,0E0,0E0,0E0,0E0],"parents":[2147483647,0,0,1,1,2,2,5,5,3,3,9,9,7,7,6,6,16,16,10,10,15,15,4,4,23,23,24,24],"right_children":[2,4,6,10,24,8,16,14,-1,12,20,-1,-1,-1,-1,22,18,-1,-1,-1,-1,-1,-1,26,28,-1,-1,-1,-1],"split_conditions":[4E0,7.03E2,6.42E2,5.64E2,3.2E1,1E0,3.5E1,5.7E1,2.4818463E-4,NaN,1E0,3.9917268E-4,-4.2106496E-4,-1.4341906E-4,-6.055913E-4,1.18E2,1E0,-2.2618602E-4,4.385322E-4,3.7000768E-4,4.817551E-4,3.832208E-4,1.0175662E-4,7.86E2,2E0,6.307761E-4,6.932397E-4,6.201138E-4,5.363435E-4],"split_indices":[2,1,1,1,4,11,4,9,0,13,11,0,0,0,0,9,11,0,0,0,0,0,0,1,2,0,0,0,0],"split_type":[0,0,0,0,0,0,0,0,0,1,0,0,0,0,0,0,0,0,0,0,0,0,0,0,0,0,0,0,0],"sum_hessian":[3.1611877E3,2.7594402E3,4.0174765E2,1.0527338E3,1.7067064E3,1.6324944E2,2.384982E2,1.22499756E2,4.0749676E1,5.649958E1,9.9623425E2,2.6499762E1,2.9999819E1,6.0749916E1,6.174984E1,1.6549867E2,7.2999535E1,4.449983E1,2.8499706E1,4.0599442E2,5.902398E2,1.4174887E2,2.3749804E1,1.1512189E3,5.5548755E2,5.404864E2,6.107325E2,4.0899045E2,1.4649712E2],"tree_param":{"num_deleted":"0","num_feature":"16","num_nodes":"29","size_leaf_vector":"0"}},{"base_weights":[1.2670983E0,1.4199492E0,2.041108E-1,5.745956E-1,-6.513593E-1,1.4974333E0,9.165491E-1,7.454455E-1,-3.8401445E-4,6.7244825E-4,1.3828827E0,1.0099771E0,-1.7879074E-4,-2.4045037E-1,-1.3507274E0,5.947884E-4,3.2041458E-4,5.655238E-4,3.8904944E-4,3.7808798E-4,9.653119E-5,-7.5447094E-4,-2.6840603E-4,4.3882083E-5,-2.6318445E-4],"categories":[0,5,0,1],"categories_nodes":[1,13],"categories_segments":[0,2],"categories_sizes":[2,2],"default_left":[0,1,0,0,0,0,0,0,0,0,0,0,0,1,0,0,0,0,0,0,0,0,0,0,0],"id":18,"left_children":[1,5,3,7,13,9,11,19,-1,-1,17,15,-1,23,21,-1,-1,-1,-1,-1,-1,-1,-1,-1,-1],"loss_changes":[5.158115E2,1.0694336E2,1.2730734E2,7.482265E1,3.4591297E1,5.513379E1,4.8206024E1,2.6816833E1,0E0,0E0,3.0622803E1,3.314151E1,0E0,1.1761524E1,1.5584953E1,0E0,0E0,0E0,0E0,0E0,0E0,0E0,0E0,0E0,0E0],"parents":[2147483647,0,0,2,2,1,1,3,3,5,5,6,6,4,4,11,11,10,10,7,7,14,14,13,13],"right_children":[2,6,4,8,14,10,12,20,-1,-1,18,16,-1,24,22,-1,-1,-1,-1,-1,-1,-1,-1,-1,-1],"split_conditions":[4E0,NaN,4E1,2E0,6E0,2.7E1,5E1,6E0,-3.8401445E-4,6.7244825E-4,3E0,2.6E1,-1.7879074E-4,NaN,5.1E1,5.947884E-4,3.2041458E-4,5.655238E-4,3.8904944E-4,3.7808798E-4,9.653119E-5,-7.5447094E-4,-2.6840603E-4,4.3882083E-5,-2.6318445E-4],"split_indices":[2,15,4,8,2,4,4,2,0,0,2,4,0,15,4,0,0,0,0,0,0,0,0,0,0],"split_type":[0,1,0,0,0,0,0,0,0,0,0,0,0,1,0,0,0,0,0,0,0,0,0,0,0],"sum_hessian":[3.1754294E3,2.7759321E3,3.994973E2,2.7899796E2,1.2049937E2,2.4039392E3,3.7199292E2,2.517481E2,2.724987E1,8.469745E2,1.5569648E3,3.4849313E2,2.34998E1,7.674952E1,4.3749847E1,9.674743E1,2.517457E2,1.3739677E3,1.8299713E2,1.757483E2,7.599978E1,2.2749926E1,2.099992E1,4.2499695E1,3.4249825E1],"tree_param":{"num_deleted":"0","num_feature":"16","num_nodes":"25","size_leaf_vector":"0"}},{"base_weights":[1.2634879E0,1.4212565E0,1.531084E-1,1.0727836E0,1.6398617E0,-5.264646E-1,5.880787E-1,1.2059033E0,4.3283668E-1,-7.522719E-4,-2.8164044E-1,-1.362158E-4,2.8193722E-4,3.521551E-5,-3.8513815E-4,2.9445797E-1,1.0300406E0,2.0716398E-4,-3.3227765E-4,5.3774787E-4,4.0133606E-4,1.6706951E0,1.3695654E0,5.1239773E-4,2.3689964E-4,3.3600215E-4,5.753606E-4,6.339842E-4,6.9204456E-4],"categories":[0,5,0,5,0,1,4,5,0,4,5],"categories_nodes":[3,4,7,15],"categories_segments":[0,2,4,8],"categories_sizes":[2,2,4,3],"default_left":[0,0,0,1,1,0,0,1,0,0,0,0,0,0,0,1,0,0,0,0,0,0,0,0,0,0,0,0,0],"id":19,"left_children":[1,3,5,7,21,9,15,19,11,-1,13,-1,-1,-1,-1,17,23,-1,-1,-1,-1,27,25,-1,-1,-1,-1,-1,-1],"loss_changes":[5.519463E2,2.0846729E2,1.1655112E2,9.035217E1,1.1829102E1,5.1574886E1,3.0873459E1,2.4850586E1,4.098376E1,0E0,3.4147556E1,0E0,0E0,0E0,0E0,3.8766743E1,1.02801285E1,0E0,0E0,0E0,0E0,5.1992188E0,7.1068115E0,0E0,0E0,0E0,0E0,0E0,0E0],"parents":[2147483647,0,0,1,1,2,2,3,3,5,5,8,8,10,10,6,6,15,15,7,7,4,4,16,16,22,22,21,21],"right_children":[2,4,6,8,22,10,16,20,12,-1,14,-1,-1,-1,-1,18,24,-1,-1,-1,-1,28,26,-1,-1,-1,-1,-1,-1],"split_conditions":[4E0,7.04E2,6.4E2,NaN,NaN,5.39E2,7.37E2,NaN,6.11E2,-7.522719E-4,6E0,-1.362158E-4,2.8193722E-4,3.521551E-5,-3.8513815E-4,NaN,5E0,2.0716398E-4,-3.3227765E-4,5.3774787E-4,4.0133606E-4,7.9E2,3.2E1,5.1239773E-4,2.3689964E-4,3.3600215E-4,5.753606E-4,6.339842E-4,6.9204456E-4],"split_indices":[2,1,1,15,15,1,1,15,1,0,2,0,0,0,0,15,2,0,0,0,0,1,12,0,0,0,0,0,0],"split_type":[0,0,0,1,1,0,0,1,0,0,0,0,0,0,0,1,0,0,0,0,0,0,0,0,0,0,0,0,0],"sum_hessian":[3.1509219E3,2.7586748E3,3.922471E2,1.0657294E3,1.6929453E3,1.529993E2,2.392478E2,8.81482E2,1.8424745E2,2.1999836E1,1.3099945E2,4.8999527E1,1.3524792E2,8.599956E1,4.49999E1,1.4474901E2,9.44988E1,1.2074917E2,2.399984E1,4.744901E2,4.0699185E2,1.5149502E3,1.7799512E2,5.6749157E1,3.7749645E1,2.7999296E1,1.4999582E2,8.8722296E2,6.2772723E2],"tree_param":{"num_deleted":"0","num_feature":"16","num_nodes":"29","size_leaf_vector":"0"}},{"base_weights":[1.2511563E0,1.4885983E0,9.676481E-1,1.175743E0,4.9666214E-1,-4.363422E-1,1.1191404E0,1.3112055E0,5.1205766E-1,1.596666E0,1.1607685E0,5.358815E-4,1.6885511E-5,8.485773E-1,1.4909589E0,3.1660034E-4,-1.3479839E-4,1.5876646E-4,-2.4895612E-4,1.6449105E0,1.1268322E0,3.7336317E-4,-1.01347005E-5,6.5495895E-4,3.2985964E-4,5.801548E-4,3.117295E-4,4.7368754E-4,2.3583503E-4,6.078424E-4,3.860176E-4],"categories":[0,5,0,5,0,5],"categories_nodes":[3,9,14],"categories_segments":[0,2,4],"categories_sizes":[2,2,2],"default_left":[0,0,0,1,0,0,0,0,0,1,0,0,0,0,1,0,0,0,0,0,0,0,0,0,0,0,0,0,0,0,0],"id":20,"left_children":[1,9,3,7,5,17,27,11,15,19,13,-1,-1,21,29,-1,-1,-1,-1,23,25,-1,-1,-1,-1,-1,-1,-1,-1,-1,-1],"loss_changes":[2.126211E2,5.939087E1,1.4174768E2,8.9815186E1,2.5994577E2,2.9673252E1,1.0833099E1,5.124463E1,4.3115887E1,2.755542E1,4.32912E1,0E0,0E0,1.9399872E1,3.9625854E0,0E0,0E0,0E0,0E0,1.4593994E1,1.3211304E1,0E0,0E0,0E0,0E0,0E0,0E0,0E0,0E0,0E0,0E0],"parents":[2147483647,0,0,2,2,4,4,3,3,1,1,7,7,10,10,8,8,5,5,9,9,13,13,19,19,20,20,6,6,14,14],"right_children":[2,10,4,8,6,18,28,12,16,20,14,-1,-1,22,30,-1,-1,-1,-1,24,26,-1,-1,-1,-1,-1,-1,-1,-1,-1,-1],"split_conditions":[3.3E1,5E0,1E0,NaN,1E0,3.5E1,1.27E2,2E0,4.5E1,NaN,3E0,5.358815E-4,1.6885511E-5,3.1E1,NaN,3.1660034E-4,-1.3479839E-4,1.5876646E-4,-2.4895612E-4,2E0,2.5E1,3.7336317E-4,-1.01347005E-5,6.5495895E-4,3.2985964E-4,5.801548E-4,3.117295E-4,4.7368754E-4,2.3583503E-4,6.078424E-4,3.860176E-4],"split_indices":[4,10,10,15,11,4,9,8,4,15,11,0,0,4,15,0,0,0,0,8,4,0,0,0,0,0,0,0,0,0,0],"split_type":[0,0,0,1,0,0,0,0,0,1,0,0,0,0,1,0,0,0,0,0,0,0,0,0,0,0,0,0,0,0,0],"sum_hessian":[3.1789124E3,1.7276938E3,1.4512185E3,1.005475E3,4.4574353E2,1.7849881E2,2.6724472E2,8.342279E2,1.7124707E2,1.2964534E3,4.312404E2,8.034782E2,3.0749706E1,2.2349675E2,2.0774365E2,1.2774751E2,4.349956E1,3.3499783E1,1.4499902E2,1.1734569E3,1.22996506E2,2.0074696E2,2.2749783E1,1.1484575E3,2.4999376E1,5.8997997E1,6.3998505E1,2.2949544E2,3.774927E1,1.8699414E2,2.0749516E1],"tree_param":{"num_deleted":"0","num_feature":"16","num_nodes":"31","size_leaf_vector":"0"}},{"base_weights":[1.2347752E0,1.392514E0,2.0058182E-1,4.860526E-1,-3.5583913E-1,8.3219147E-1,1.429204E0,6.1973065E-1,-3.4178217E-4,1.6815555E-1,-9.95728E-1,1.4660795E0,1.1261731E0,-2.0945701E-4,-7.508308E-4,-8.588169E-5,9.7399E-1,1.639924E-4,4.434928E-4,-2.3841343E-4,2.2023014E-4,1.4050998E-4,4.7445108E-4,6.1807066E-4,5.609052E-4,4.2218395E-4,1.8506519E-4],"categories":[],"categories_nodes":[],"categories_segments":[],"categories_sizes":[],"default_left":[0,0,0,0,0,0,0,0,0,0,0,0,0,0,0,0,0,0,0,0,0,0,0,0,0,0,0],"id":21,"left_children":[1,5,3,7,9,15,11,17,-1,19,13,23,21,-1,-1,-1,25,-1,-1,-1,-1,-1,-1,-1,-1,-1,-1],"loss_changes":[5.17854E2,5.5462402E1,6.7124275E1,5.1006752E1,4.8282562E1,2.57854E1,2.7233398E1,2.5730888E1,0E0,2.4419504E1,2.6323082E1,7.859375E0,1.6577454E1,0E0,0E0,0E0,6.922989E0,0E0,0E0,0E0,0E0,0E0,0E0,0E0,0E0,0E0,0E0],"parents":[2147483647,0,0,2,2,1,1,3,3,4,4,6,6,10,10,5,5,7,7,9,9,12,12,11,11,16,16],"right_children":[2,6,4,8,10,16,12,18,-1,20,14,24,22,-1,-1,-1,26,-1,-1,-1,-1,-1,-1,-1,-1,-1,-1],"split_conditions":[4E0,2.7E1,6E0,4.4E1,6.3E1,2.4E1,3E0,3.7E1,-3.4178217E-4,3.8E1,2.6E1,1E0,2.8E1,-2.0945701E-4,-7.508308E-4,-8.588169E-5,3E0,1.639924E-4,4.434928E-4,-2.3841343E-4,2.2023014E-4,1.4050998E-4,4.7445108E-4,6.1807066E-4,5.609052E-4,4.2218395E-4,1.8506519E-4],"split_indices":[2,12,2,12,9,12,2,12,0,9,6,2,9,0,0,0,2,0,0,0,0,0,0,0,0,0,0],"split_type":[0,0,0,0,0,0,0,0,0,0,0,0,0,0,0,0,0,0,0,0,0,0,0,0,0,0,0],"sum_hessian":[3.1751545E3,2.7546582E3,4.2049646E2,2.77997E2,1.4249942E2,1.7074596E2,2.5839124E3,2.5349727E2,2.449975E1,7.874974E1,6.3749683E1,2.30017E3,2.8374243E2,4.324979E1,2.0499895E1,2.0249743E1,1.5049622E2,1.8199808E2,7.149919E1,2.624994E1,5.24998E1,2.6499586E1,2.5724283E2,6.70725E2,1.6294448E3,1.2524659E2,2.5249622E1],"tree_param":{"num_deleted":"0","num_feature":"16","num_nodes":"27","size_leaf_vector":"0"}},{"base_weights":[1.2356291E0,1.5057846E0,5.576568E-1,1.7724991E-1,9.363929E-1,8.435416E-1,-3.9113256E-1,1.0567955E0,-1.620079E-1,1.6312209E0,1.3506289E0,1.0932142E-4,-2.4776542E-4,-1.3983628E-4,3.8978076E-4,1.1753885E0,1.5379684E0,5.5173633E-4,3.2840113E-4,4.5521243E-4,1.3763561E-4,2.232522E-4,-3.1872388E-4,1.7198776E0,1.5638598E0,6.9370226E-4,5.755805E-4,6.576709E-4,5.8978563E-4,6.2701374E-4,5.435848E-4],"categories":[],"categories_nodes":[],"categories_segments":[],"categories_sizes":[],"default_left":[0,0,0,0,0,0,0,0,0,0,0,0,0,0,0,0,0,0,0,0,0,0,0,0,0,0,0,0,0,0,0],"id":22,"left_children":[1,9,3,5,7,13,11,19,21,23,15,-1,-1,-1,-1,17,29,-1,-1,-1,-1,-1,-1,25,27,-1,-1,-1,-1,-1,-1],"loss_changes":[5.7150977E2,4.1273926E1,1.283454E2,1.6932608E2,5.9252655E1,3.6200912E1,3.8516125E1,2.7571136E1,2.1655025E1,4.6586914E0,3.116809E1,0E0,0E0,0E0,0E0,3.9022217E1,1.8555908E0,0E0,0E0,0E0,0E0,0E0,0E0,2.8642578E0,2.5230713E0,0E0,0E0,0E0,0E0,0E0,0E0],"parents":[2147483647,0,0,2,2,3,3,4,4,1,1,6,6,5,5,10,10,15,15,7,7,8,8,9,9,23,23,24,24,16,16],"right_children":[2,10,4,6,8,14,12,20,22,24,16,-1,-1,-1,-1,18,30,-1,-1,-1,-1,-1,-1,26,28,-1,-1,-1,-1,-1,-1],"split_conditions":[4.1E1,2.6E1,1E0,1E0,5E1,2.8E1,3.3E1,6.1E1,5.4E1,1.7E1,4E0,1.0932142E-4,-2.4776542E-4,-1.3983628E-4,3.8978076E-4,5E0,7E0,5.5173633E-4,3.2840113E-4,4.5521243E-4,1.3763561E-4,2.232522E-4,-3.1872388E-4,9E0,3.4E1,6.9370226E-4,5.755805E-4,6.576709E-4,5.8978563E-4,6.2701374E-4,5.435848E-4],"split_indices":[0,0,11,9,4,12,4,0,0,0,11,0,0,0,0,9,10,0,0,0,0,0,0,10,12,0,0,0,0,0,0],"split_type":[0,0,0,0,0,0,0,0,0,0,0,0,0,0,0,0,0,0,0,0,0,0,0,0,0,0,0,0,0,0,0],"sum_hessian":[3.1238967E3,2.2329138E3,8.9098285E2,4.4524332E2,4.4573956E2,2.0474496E2,2.4049834E2,4.0174017E2,4.3999386E1,1.2294476E3,1.0034662E3,6.2999508E1,1.7749883E2,2.1999662E1,1.827453E2,5.2223413E2,4.812321E2,3.1348856E2,2.0874554E2,3.522409E2,4.9499252E1,2.0749567E1,2.3249819E1,5.202258E2,7.092218E2,4.4547855E2,7.47473E1,2.6848944E2,4.4073236E2,3.542364E2,1.2699568E2],"tree_param":{"num_deleted":"0","num_feature":"16","num_nodes":"31","size_leaf_vector":"0"}},{"base_weights":[1.2493925E0,7.532422E-1,1.5464808E0,-3.9732194E-1,8.4828174E-1,9.9243355E-1,4.683811E-1,2.2398416E-4,-8.299521E-1,-1.1925407E-5,2.7557198E-4,1.6020671E0,1.2123709E0,-5.6899375E-5,-6.39266E-4,4.4810856E-4,2.9650927E-4,1.9117129E-4,1.327187E0,1.2230363E0,1.6300956E0,6.39517E-4,3.324477E-4,4.7689115E-4,6.8042206E-4,6.162999E-4,6.786924E-4],"categories":[0,0],"categories_nodes":[3,19],"categories_segments":[0,1],"categories_sizes":[1,1],"default_left":[0,0,0,1,0,0,0,0,0,0,0,0,0,0,0,0,0,0,0,1,0,0,0,0,0,0,0],"id":23,"left_children":[1,3,11,7,5,15,9,-1,13,-1,-1,19,17,-1,-1,-1,-1,-1,23,21,25,-1,-1,-1,-1,-1,-1],"loss_changes":[4.6394043E2,1.2977612E2,3.4694336E1,3.8486782E1,5.943103E1,2.6626282E1,3.4862457E1,0E0,3.4108837E1,0E0,0E0,1.5940918E1,2.3197601E1,0E0,0E0,0E0,0E0,0E0,9.421753E0,1.6866241E1,6.882324E0,0E0,0E0,0E0,0E0,0E0,0E0],"parents":[2147483647,0,0,1,1,4,4,3,3,6,6,2,2,8,8,5,5,12,12,11,11,19,19,18,18,20,20],"right_children":[2,4,12,8,6,16,10,-1,14,-1,-1,20,18,-1,-1,-1,-1,-1,24,22,26,-1,-1,-1,-1,-1,-1],"split_conditions":[6.9E2,5.58E2,4E0,NaN,1E0,8.9E1,3.6E1,2.2398416E-4,5.6E1,-1.1925407E-5,2.7557198E-4,7.04E2,3.8E1,-5.6899375E-5,-6.39266E-4,4.4810856E-4,2.9650927E-4,1.9117129E-4,8.23E2,NaN,7.9E2,6.39517E-4,3.324477E-4,4.7689115E-4,6.8042206E-4,6.162999E-4,6.786924E-4],"split_indices":[1,1,6,13,6,5,7,0,9,0,0,1,9,0,0,0,0,0,1,13,1,0,0,0,0,0,0],"split_type":[0,0,0,1,0,0,0,0,0,0,0,0,0,0,0,0,0,0,0,1,0,0,0,0,0,0,0],"sum_hessian":[3.154386E3,1.1827229E3,1.9716631E3,8.999906E1,1.0927238E3,7.9097797E2,3.0174582E2,2.7749586E1,6.2249474E1,9.574895E1,2.0599689E2,1.6871711E3,2.8449194E2,3.3999725E1,2.8249748E1,4.914859E2,2.9949207E2,3.949907E1,2.4499287E2,1.192456E2,1.5679255E3,5.649778E1,6.2747814E1,1.9249489E2,5.2497982E1,9.204595E2,6.4746606E2],"tree_param":{"num_deleted":"0","num_feature":"16","num_nodes":"27","size_leaf_vector":"0"}},{"base_weights":[1.2496475E0,1.4139372E0,9.1959186E-2,1.5067824E0,6.163795E-1,5.038302E-1,-8.120511E-1,1.2686049E0,1.6241277E0,2.3034278E-1,1.3705539E0,3.9357104E-4,-9.4526906E-5,-4.6679968E-1,7.9879785E-1,-3.4060836E-1,-1.3388232E0,-4.729722E-4,6.936109E-5,3.5693706E-4,-6.569337E-5,4.3253554E-4,5.547979E-4,-2.493637E-4,-6.7132054E-4,6.442462E-4,3.2120122E-4,4.4923503E-4,6.9546455E-4,-1.09208275E-4,-2.5273892E-4],"categories":[],"categories_nodes":[],"categories_segments":[],"categories_sizes":[],"default_left":[0,0,0,0,0,0,0,0,0,0,0,0,0,0,0,0,0,0,0,0,0,0,0,0,0,0,0,0,0,0,0],"id":24,"left_children":[1,3,5,7,13,9,15,21,25,11,27,-1,-1,29,19,17,23,-1,-1,-1,-1,-1,-1,-1,-1,-1,-1,-1,-1,-1,-1],"loss_changes":[5.9777637E2,2.0292041E2,1.4627007E2,6.68374E1,5.7426285E1,6.362446E1,3.0089996E1,1.7927246E1,1.2599609E1,7.4736046E1,3.852539E0,0E0,0E0,1.2205982E0,2.567537E1,2.9623686E1,1.3784187E1,0E0,0E0,0E0,0E0,0E0,0E0,0E0,0E0,0E0,0E0,0E0,0E0,0E0,0E0],"parents":[2147483647,0,0,1,1,2,2,3,3,5,5,9,9,4,4,6,6,15,15,14,14,7,7,16,16,8,8,10,10,13,13],"right_children":[2,4,6,8,14,10,16,22,26,12,28,-1,-1,30,20,18,24,-1,-1,-1,-1,-1,-1,-1,-1,-1,-1,-1,-1,-1,-1],"split_conditions":[4E0,5.3E1,5.3E1,7.04E2,5.75E2,3E0,6.4E1,4E0,4.7E1,2.9E1,4.6E1,3.9357104E-4,-9.4526906E-5,3.2E1,4.6E1,5.8E1,2E1,-4.729722E-4,6.936109E-5,3.5693706E-4,-6.569337E-5,4.3253554E-4,5.547979E-4,-2.493637E-4,-6.7132054E-4,6.442462E-4,3.2120122E-4,4.4923503E-4,6.9546455E-4,-1.09208275E-4,-2.5273892E-4],"split_indices":[2,0,0,1,1,11,0,11,0,0,0,0,0,12,11,0,7,0,0,0,0,0,0,0,0,0,0,0,0,0,0],"split_type":[0,0,0,0,0,0,0,0,0,0,0,0,0,0,0,0,0,0,0,0,0,0,0,0,0,0,0,0,0,0,0],"sum_hessian":[3.1426265E3,2.7518806E3,3.9074582E2,2.4641367E3,2.8774387E2,2.6874646E2,1.2199937E2,8.172218E2,1.6469149E3,2.0524794E2,6.3498505E1,7.7498695E1,1.2774925E2,4.1249584E1,2.4649428E2,6.524972E1,5.674965E1,2.399993E1,4.124979E1,2.2199493E2,2.4499338E1,3.702383E2,4.469835E2,2.0249895E1,3.6499752E1,1.6249156E3,2.1999235E1,4.2498905E1,2.0999601E1,2.0999834E1,2.0249752E1],"tree_param":{"num_deleted":"0","num_feature":"16","num_nodes":"31","size_leaf_vector":"0"}},{"base_weights":[1.2547661E0,1.5202733E0,6.924747E-1,7.887892E-1,-6.5335274E-1,4.8897234E-1,1.0907546E0,3.492384E-4,-8.5355205E-5,1.599791E0,1.2571015E0,9.282769E-1,1.5592823E0,4.7474267E-4,2.3627732E-4,4.44657E-4,2.0743828E-4,1.6386961E0,1.2957608E0,-3.5855737E-1,-4.6250038E-4,6.6790136E-4,5.912235E-4,6.2138255E-4,4.3419696E-4,6.7994016E-4,5.44492E-4,-3.4030905E-5,-2.5700819E-4],"categories":[0,5],"categories_nodes":[9],"categories_segments":[0],"categories_sizes":[2],"default_left":[0,0,0,0,0,0,0,0,0,1,0,0,0,0,0,0,0,0,0,0,0,0,0,0,0,0,0,0,0],"id":25,"left_children":[1,9,3,5,19,7,13,-1,-1,17,11,15,25,-1,-1,-1,-1,21,23,27,-1,-1,-1,-1,-1,-1,-1,-1,-1],"loss_changes":[4.6994434E2,4.2816895E1,1.3191714E2,8.515521E1,1.0043419E1,1.3376312E2,2.558551E1,0E0,0E0,1.7291992E1,4.840692E1,1.8911728E1,5.2836304E0,0E0,0E0,0E0,0E0,8.706299E0,8.674133E0,3.5391912E0,0E0,0E0,0E0,0E0,0E0,0E0,0E0,0E0,0E0],"parents":[2147483647,0,0,2,2,3,3,5,5,1,1,10,10,6,6,11,11,9,9,4,4,17,17,18,18,12,12,19,19],"right_children":[2,10,4,6,20,8,14,-1,-1,18,12,16,26,-1,-1,-1,-1,22,24,28,-1,-1,-1,-1,-1,-1,-1,-1,-1],"split_conditions":[4E1,7E0,7E1,1E0,7.6E1,1E0,5.8E1,3.492384E-4,-8.5355205E-5,NaN,4E0,3.1E1,2.5E1,4.7474267E-4,2.3627732E-4,4.44657E-4,2.0743828E-4,3E1,2.1E1,1E0,-4.6250038E-4,6.6790136E-4,5.912235E-4,6.2138255E-4,4.3419696E-4,6.7994016E-4,5.44492E-4,-3.4030905E-5,-2.5700819E-4],"split_indices":[0,10,0,11,0,10,0,0,0,15,11,0,0,0,0,0,0,0,0,7,0,0,0,0,0,0,0,0,0],"split_type":[0,0,0,0,0,0,0,0,0,1,0,0,0,0,0,0,0,0,0,0,0,0,0,0,0,0,0,0,0],"sum_hessian":[3.1538672E3,2.141142E3,1.0127252E3,9.454759E2,6.724933E1,4.7574014E2,4.6973575E2,3.0424133E2,1.7149881E2,1.6404105E3,5.0073157E2,2.4174425E2,2.589873E2,3.8023752E2,8.949825E1,1.6024565E2,8.14986E1,1.450419E3,1.8999149E2,4.399951E1,2.3249817E1,1.0256897E3,4.2472934E2,7.474607E1,1.1524542E2,1.2949312E2,1.2949419E2,2.3499762E1,2.0499748E1],"tree_param":{"num_deleted":"0","num_feature":"16","num_nodes":"29","size_leaf_vector":"0"}},{"base_weights":[1.2406565E0,1.5005473E0,6.2945205E-1,8.260071E-1,-3.5895607E-1,1.5670505E0,7.531298E-1,-7.2506154E-1,5.518459E-4,1.1357627E0,4.722266E-1,1.1560757E0,9.585087E-2,2.1779734E-4,-2.9227263E-4,5.003464E-4,2.0578987E-4,1.6127056E0,1.1945058E0,-1.6409114E-4,-5.7749223E-4,5.2551937E-4,1.2592798E-4,-2.929851E-4,1.9714248E-4,6.4026576E-4,3.5790782E-4,5.02628E-4,2.3563327E-4],"categories":[0,1,5,0,5],"categories_nodes":[3,5],"categories_segments":[0,3],"categories_sizes":[3,2],"default_left":[0,0,0,1,0,1,0,0,0,0,0,0,0,0,0,0,0,0,0,0,0,0,0,0,0,0,0,0,0],"id":26,"left_children":[1,5,3,9,7,17,11,19,-1,15,13,27,23,-1,-1,-1,-1,25,21,-1,-1,-1,-1,-1,-1,-1,-1,-1,-1],"loss_changes":[4.926089E2,1.0714697E2,1.8072638E2,8.438989E1,1.00675705E2,3.2097656E1,4.756086E1,2.8810013E1,0E0,3.318164E1,3.5867294E1,6.655899E0,2.3954576E1,0E0,0E0,0E0,0E0,1.3280273E1,2.6572174E1,0E0,0E0,0E0,0E0,0E0,0E0,0E0,0E0,0E0,0E0],"parents":[2147483647,0,0,2,2,1,1,4,4,3,3,6,6,10,10,9,9,5,5,7,7,18,18,12,12,17,17,11,11],"right_children":[2,6,4,10,8,18,12,20,-1,16,14,28,24,-1,-1,-1,-1,26,22,-1,-1,-1,-1,-1,-1,-1,-1,-1,-1],"split_conditions":[4.1E1,4E0,5E0,NaN,2E0,NaN,2.9E1,4.9E1,5.518459E-4,5.9E1,7.2E1,6E0,3.5E1,2.1779734E-4,-2.9227263E-4,5.003464E-4,2.0578987E-4,2E0,3.5E1,-1.6409114E-4,-5.7749223E-4,5.2551937E-4,1.2592798E-4,-2.929851E-4,1.9714248E-4,6.4026576E-4,3.5790782E-4,5.02628E-4,2.3563327E-4],"split_indices":[0,2,2,15,11,15,0,7,0,0,0,2,0,0,0,0,0,8,0,0,0,0,0,0,0,0,0,0,0],"split_type":[0,0,0,1,0,1,0,0,0,0,0,0,0,0,0,0,0,0,0,0,0,0,0,0,0,0,0,0,0],"sum_hessian":[3.1061067E3,2.1783801E3,9.277264E2,7.7397736E2,1.5374902E2,1.9993838E3,1.7899641E2,1.2774943E2,2.5999594E1,4.1148648E2,3.6249088E2,1.1049709E2,6.849932E1,3.4049103E2,2.1999847E1,3.369879E2,7.449858E1,1.7781444E3,2.2123941E2,9.124968E1,3.649975E1,1.9049048E2,3.0748945E1,2.199981E1,4.649951E1,1.7476458E3,3.0498674E1,8.9997375E1,2.049972E1],"tree_param":{"num_deleted":"0","num_feature":"16","num_nodes":"29","size_leaf_vector":"0"}},{"base_weights":[1.2403637E0,1.3969687E0,1.7960592E-1,1.0700923E0,1.6079278E0,-5.701172E-1,6.9269353E-1,-1.0905867E0,8.5285014E-1,1.2030326E0,4.1427472E-1,8.963904E-1,-2.7169913E-1,4.941213E-4,1.3294675E-4,-1.5001238E-4,2.6521046E-4,-7.553378E-4,-3.4491008E-4,4.1675929E-4,1.1858627E-4,1.641801E0,1.3269509E0,-2.809833E-4,8.2079096E-5,6.200492E-4,6.84825E-4,4.337807E-4,5.7286856E-4,2.6547824E-4,4.002047E-4],"categories":[0,5,0,5,0,4,5],"categories_nodes":[3,4,11],"categories_segments":[0,2,4],"categories_sizes":[2,2,3],"default_left":[0,0,0,1,1,0,0,0,0,0,0,1,0,0,0,0,0,0,0,0,0,0,0,0,0,0,0,0,0,0,0],"id":27,"left_children":[1,3,5,9,21,7,11,17,29,13,15,19,23,-1,-1,-1,-1,-1,-1,-1,-1,25,27,-1,-1,-1,-1,-1,-1,-1,-1],"loss_changes":[5.209243E2,1.8678223E2,1.5608942E2,9.3243286E1,1.3614746E1,1.2312991E2,4.7536545E1,1.9900177E1,6.201134E-1,3.8752075E1,3.7822807E1,1.8761993E1,9.201061E0,0E0,0E0,0E0,0E0,0E0,0E0,0E0,0E0,6.9663086E0,3.6628723E0,0E0,0E0,0E0,0E0,0E0,0E0,0E0,0E0],"parents":[2147483647,0,0,1,1,2,2,5,5,3,3,6,6,9,9,10,10,7,7,11,11,4,4,12,12,21,21,22,22,8,8],"right_children":[2,4,6,10,22,8,12,18,30,14,16,20,24,-1,-1,-1,-1,-1,-1,-1,-1,26,28,-1,-1,-1,-1,-1,-1,-1,-1],"split_conditions":[4E0,7.04E2,6.43E2,NaN,NaN,1E0,3.3E1,5E0,4E0,3.1E1,6.09E2,NaN,1.5E1,4.941213E-4,1.3294675E-4,-1.5001238E-4,2.6521046E-4,-7.553378E-4,-3.4491008E-4,4.1675929E-4,1.1858627E-4,7.9E2,7.51E2,-2.809833E-4,8.2079096E-5,6.200492E-4,6.84825E-4,4.337807E-4,5.7286856E-4,2.6547824E-4,4.002047E-4],"split_indices":[2,1,1,15,15,11,3,2,11,3,1,15,5,0,0,0,0,0,0,0,0,1,1,0,0,0,0,0,0,0,0],"split_type":[0,0,0,1,1,0,0,0,0,0,0,1,0,0,0,0,0,0,0,0,0,0,0,0,0,0,0,0,0,0,0],"sum_hessian":[3.136344E3,2.7325996E3,4.0374435E2,1.0742089E3,1.6583906E3,1.6399861E2,2.3974573E2,1.2024936E2,4.374925E1,8.9246375E2,1.8174516E2,1.9799599E2,4.174975E1,8.427146E2,4.974913E1,4.4499287E1,1.3724588E2,2.3249905E1,9.699946E1,1.5524684E2,4.2749146E1,1.4756506E3,1.8274004E2,2.1499895E1,2.0249851E1,8.696953E2,6.059553E2,6.8996605E1,1.1374342E2,2.3249636E1,2.0499615E1],"tree_param":{"num_deleted":"0","num_feature":"16","num_nodes":"31","size_leaf_vector":"0"}},{"base_weights":[1.2488016E0,1.5066246E0,6.5144134E-1,2.9504904E-1,1.0032382E0,7.177693E-1,-3.9152488E-1,-7.5099274E-4,-7.06032E-5,1.5914501E0,1.2085186E0,8.4639305E-1,1.5248464E0,1.1102425E0,1.9062E-1,4.616818E-4,1.7336791E-4,1.3174642E0,1.6631145E0,4.3511327E-4,1.4437397E-4,-2.1447062E-4,2.9932667E-4,4.539757E-4,1.3607585E-4,4.623074E-4,6.034209E-4,6.706601E-4,5.370603E-4,6.8797247E-4,6.331403E-4],"categories":[0],"categories_nodes":[5],"categories_segments":[0],"categories_sizes":[1],"default_left":[0,0,0,0,0,1,0,0,0,0,0,0,0,0,0,0,0,0,0,0,0,0,0,0,0,0,0,0,0,0,0],"id":28,"left_children":[1,9,3,5,13,15,7,-1,-1,17,11,19,27,23,21,-1,-1,25,29,-1,-1,-1,-1,-1,-1,-1,-1,-1,-1,-1,-1],"loss_changes":[4.9618506E2,5.507617E1,1.21943695E2,1.4125647E2,4.2415833E1,3.7426956E1,5.938346E1,0E0,0E0,3.220215E1,5.6382812E1,2.8901505E1,5.350769E0,1.3374817E1,2.4759052E1,0E0,0E0,9.558411E0,3.6674805E0,0E0,0E0,0E0,0E0,0E0,0E0,0E0,0E0,0E0,0E0,0E0,0E0],"parents":[2147483647,0,0,2,2,3,3,6,6,1,1,10,10,4,4,5,5,9,9,11,11,14,14,13,13,17,17,12,12,18,18],"right_children":[2,10,4,6,14,16,8,-1,-1,18,12,20,28,24,22,-1,-1,26,30,-1,-1,-1,-1,-1,-1,-1,-1,-1,-1,-1,-1],"split_conditions":[4.1E1,6E0,1E0,1E0,6.4E1,NaN,5.48E2,-7.5099274E-4,-7.06032E-5,7.04E2,4E0,3.1E1,2.5E1,1.54E2,2E1,4.616818E-4,1.7336791E-4,1.5E1,1.9E1,4.3511327E-4,1.4437397E-4,-2.1447062E-4,2.9932667E-4,4.539757E-4,1.3607585E-4,4.623074E-4,6.034209E-4,6.706601E-4,5.370603E-4,6.8797247E-4,6.331403E-4],"split_indices":[0,10,11,10,0,13,1,0,0,1,11,0,0,11,11,0,0,11,0,0,0,0,0,0,0,0,0,0,0,0,0],"split_type":[0,0,0,0,0,1,0,0,0,0,0,0,0,0,0,0,0,0,0,0,0,0,0,0,0,0,0,0,0,0,0],"sum_hessian":[3.2270771E3,2.2531057E3,9.7397144E2,4.8473904E2,4.892324E2,2.9999072E2,1.8474832E2,2.1749624E1,1.6299869E2,1.7506294E3,5.0247638E2,2.3599258E2,2.664838E2,4.3198325E2,5.7249138E1,1.1274608E2,1.8724466E2,3.669812E2,1.3836482E3,1.5274434E2,8.324823E1,2.4999685E1,3.2249454E1,4.0923425E2,2.2748987E1,2.2273917E2,1.4424203E2,1.2299168E2,1.4349211E2,5.5195636E2,8.3169183E2],"tree_param":{"num_deleted":"0","num_feature":"16","num_nodes":"31","size_leaf_vector":"0"}},{"base_weights":[1.2457551E0,8.009521E-1,1.5774373E0,4.0764207E-1,1.1517955E0,8.520654E-1,-1.9505727E-1,-7.5379846E-4,-7.77469E-6,-1.3463423E-4,3.9087262E-4,5.272427E-1,1.2400613E0,1.6462061E0,1.3992336E0,1.1483347E0,1.6287776E0,1.8434916E-4,5.0353055E-4,-1.647648E-5,3.075529E-4,4.1366098E-4,5.265283E-4,4.560797E-4,1.6595206E0,6.3279987E-4,6.9679256E-4,6.020403E-4,6.936157E-4],"categories":[],"categories_nodes":[],"categories_segments":[],"categories_sizes":[],"default_left":[0,0,0,0,0,0,0,0,0,0,0,0,0,0,0,0,0,0,0,0,0,0,0,0,0,0,0,0,0],"id":29,"left_children":[1,3,13,5,11,9,7,-1,-1,-1,-1,19,21,23,15,17,27,-1,-1,-1,-1,-1,-1,-1,25,-1,-1,-1,-1],"loss_changes":[4.6152197E2,1.847066E2,1.970459E1,1.7004774E2,3.841559E1,6.1222717E1,8.12656E1,0E0,0E0,0E0,0E0,1.292144E1,9.923157E0,6.480713E0,2.7312927E1,2.099237E1,7.9278564E-1,0E0,0E0,0E0,0E0,0E0,0E0,0E0,4.496338E0,0E0,0E0,0E0,0E0],"parents":[2147483647,0,0,1,1,3,3,6,6,5,5,4,4,2,2,14,14,15,15,11,11,12,12,13,13,24,24,16,16],"right_children":[2,4,14,6,12,10,8,-1,-1,-1,-1,20,22,24,16,18,28,-1,-1,-1,-1,-1,-1,-1,26,-1,-1,-1,-1],"split_conditions":[7.04E2,1E0,1E0,1E0,5.84E2,2.8E1,5.46E2,-7.5379846E-4,-7.77469E-6,-1.3463423E-4,3.9087262E-4,3.1E1,3.3E1,2.7E1,5E0,3.2E1,7.89E2,1.8434916E-4,5.0353055E-4,-1.647648E-5,3.075529E-4,4.1366098E-4,5.265283E-4,4.560797E-4,8.05E2,6.3279987E-4,6.9679256E-4,6.020403E-4,6.936157E-4],"split_indices":[1,11,7,7,1,12,1,0,0,0,0,12,12,12,11,7,1,0,0,0,0,0,0,0,1,0,0,0,0],"split_type":[0,0,0,0,0,0,0,0,0,0,0,0,0,0,0,0,0,0,0,0,0,0,0,0,0,0,0,0,0],"sum_hessian":[3.1358213E3,1.3409512E3,1.7948702E3,6.332328E2,7.077183E2,3.6423587E2,2.6899692E2,2.3999533E1,2.4499739E2,3.7999096E1,3.262368E2,8.849772E1,6.192206E2,1.2891498E3,5.0572046E2,2.4448906E2,2.6123138E2,3.9748547E1,2.0474051E2,2.749955E1,6.099817E1,2.112407E2,4.079799E2,3.6497433E1,1.2526523E3,8.4668726E2,4.0596503E2,1.5448982E2,1.0674156E2],"tree_param":{"num_deleted":"0","num_feature":"16","num_nodes":"29","size_leaf_vector":"0"}},{"base_weights":[1.2471641E0,1.4088331E0,8.363895E-1,1.5271642E0,1.0583907E0,9.695348E-1,2.4693292E-1,4.6352756E-1,-4.4260288E-4,1.4195762E0,8.199473E-1,-4.7093294E-5,3.5502945E-4,1.2722769E0,7.373814E-1,1.5833777E0,1.1043626E0,3.743098E-4,1.096202E-5,2.3646282E-5,3.1629606E-4,6.697368E-4,5.823342E-4,5.190709E-4,3.1361546E-4,6.4142706E-4,4.2462448E-4,3.964011E-4,5.519434E-4],"categories":[0,5,0,5,0,1,3,5,0,4,5,0],"categories_nodes":[2,3,9,14,16],"categories_segments":[0,2,4,8,11],"categories_sizes":[2,2,4,3,1],"default_left":[0,0,1,1,0,0,0,0,0,1,0,0,0,0,1,0,1,0,0,0,0,0,0,0,0,0,0,0,0],"id":30,"left_children":[1,3,5,15,13,9,7,19,-1,25,11,-1,-1,27,17,21,23,-1,-1,-1,-1,-1,-1,-1,-1,-1,-1,-1,-1],"loss_changes":[2.0645459E2,9.135889E1,6.925458E1,3.8035156E1,3.814441E1,4.7439026E1,4.9328354E1,1.9477663E1,0E0,1.0960388E1,4.1432983E1,0E0,0E0,1.020874E1,3.4622032E1,1.55876465E1,1.20603485E1,0E0,0E0,0E0,0E0,0E0,0E0,0E0,0E0,0E0,0E0,0E0,0E0],"parents":[2147483647,0,0,1,1,2,2,6,6,5,5,10,10,4,4,3,3,14,14,7,7,15,15,16,16,9,9,13,13],"right_children":[2,4,6,16,14,10,8,20,-1,26,12,-1,-1,28,18,22,24,-1,-1,-1,-1,-1,-1,-1,-1,-1,-1,-1,-1],"split_conditions":[3.8E1,7E0,NaN,NaN,3E1,1E0,5.5E1,5.9E1,-4.4260288E-4,NaN,6E0,-4.7093294E-5,3.5502945E-4,1.4E1,NaN,2.7E1,NaN,3.743098E-4,1.096202E-5,2.3646282E-5,3.1629606E-4,6.697368E-4,5.823342E-4,5.190709E-4,3.1361546E-4,6.4142706E-4,4.2462448E-4,3.964011E-4,5.519434E-4],"split_indices":[4,10,15,15,4,5,4,5,0,15,5,0,0,5,15,4,13,0,0,0,0,0,0,0,0,0,0,0,0],"split_type":[0,0,1,1,0,0,0,0,0,1,0,0,0,0,1,0,1,0,0,0,0,0,0,0,0,0,0,0,0],"sum_hessian":[3.1255566E3,2.2410962E3,8.844603E2,1.672873E3,5.682232E2,7.209653E2,1.6349504E2,1.4174536E2,2.174969E1,1.7773897E2,5.432263E2,4.299902E1,5.002273E2,3.3923196E2,2.2899123E2,1.4741344E3,1.987386E2,1.7599303E2,5.29982E1,6.524803E1,7.649732E1,6.966893E2,7.774451E2,1.1574303E2,8.299557E1,1.0824305E2,6.949591E1,1.129948E2,2.2623717E2],"tree_param":{"num_deleted":"0","num_feature":"16","num_nodes":"29","size_leaf_vector":"0"}},{"base_weights":[1.2402538E0,1.3322117E0,6.49383E-1,1.4793013E0,9.9416494E-1,3.9022478E-1,1.3534472E0,8.85945E-1,1.5488847E-1,-6.3008094E-1,7.5599277E-1,-5.886375E-4,-5.5887704E-5,-2.0805886E-5,2.0868781E-4,1.4025629E0,1.5907148E0,5.835263E-4,4.7181605E-4,9.985616E-1,5.1338094E-1,4.3819772E-4,5.6602084E-4,9.701293E-5,3.143568E-4,3.8113407E-4,1.757771E-4,3.53196E-4,4.7880507E-4,6.527109E-4,5.960503E-4],"categories":[0,5,0,3,4,1,0,1,3,5],"categories_nodes":[0,7,9,16],"categories_segments":[0,2,5,6],"categories_sizes":[2,3,1,4],"default_left":[1,0,0,0,0,0,0,1,0,1,0,0,0,0,0,0,1,0,0,0,0,0,0,0,0,0,0,0,0,0,0],"id":31,"left_children":[1,3,7,15,5,13,21,19,9,11,25,-1,-1,-1,-1,17,29,-1,-1,27,23,-1,-1,-1,-1,-1,-1,-1,-1,-1,-1],"loss_changes":[1.6920654E2,1.331582E2,4.9400955E1,1.3881836E1,1.7825928E2,1.9075E1,8.714355E0,1.1496902E1,6.570732E1,2.5293737E1,4.720173E0,0E0,0E0,0E0,0E0,1.6238281E1,1.395752E0,0E0,0E0,3.7569885E0,5.0060444E0,0E0,0E0,0E0,0E0,0E0,0E0,0E0,0E0,0E0,0E0],"parents":[2147483647,0,0,1,1,4,4,2,2,8,8,9,9,5,5,3,3,15,15,7,7,6,6,20,20,10,10,19,19,16,16],"right_children":[2,4,8,16,6,14,22,20,10,12,26,-1,-1,-1,-1,18,30,-1,-1,28,24,-1,-1,-1,-1,-1,-1,-1,-1,-1,-1],"split_conditions":[NaN,1E0,1E0,1.4E1,1E0,3.8E1,3E0,NaN,1E0,NaN,8E0,-5.886375E-4,-5.5887704E-5,-2.0805886E-5,2.0868781E-4,1E0,NaN,5.835263E-4,4.7181605E-4,3.3E1,2E0,4.3819772E-4,5.6602084E-4,9.701293E-5,3.143568E-4,3.8113407E-4,1.757771E-4,3.53196E-4,4.7880507E-4,6.527109E-4,5.960503E-4],"split_indices":[15,10,7,11,11,9,11,14,11,14,11,0,0,0,0,9,15,0,0,11,11,0,0,0,0,0,0,0,0,0,0],"split_type":[1,0,0,0,0,0,0,1,0,1,0,0,0,0,0,0,1,0,0,0,0,0,0,0,0,0,0,0,0,0,0],"sum_hessian":[3.1290457E3,2.7065652E3,4.2248056E2,1.8836031E3,8.22962E2,3.077432E2,5.152188E2,2.8523495E2,1.3724562E2,5.949897E1,7.774665E1,2.0749725E1,3.8749245E1,7.3748566E1,2.3399461E2,1.1234156E3,7.601875E2,8.099346E2,3.134811E2,2.1773805E2,6.749689E1,1.3499352E2,3.8022528E2,3.574822E1,3.1748672E1,4.4998333E1,3.274832E1,1.5124202E2,6.649604E1,4.0371677E2,3.564707E2],"tree_param":{"num_deleted":"0","num_feature":"16","num_nodes":"31","size_leaf_vector":"0"}},{"base_weights":[1.243462E0,1.4019356E0,1.466055E-1,1.0423987E0,1.6218554E0,-5.230409E-1,5.9266347E-1,1.2861378E0,7.2606087E-1,-4.3991004E-4,3.2298182E-4,-6.4988394E-4,-2.3916067E-1,8.2126504E-1,-3.1283873E-1,2.248046E-4,-2.698615E-4,5.3057494E-4,9.1843984E-5,3.9889192E-4,-3.639272E-5,-3.544982E-4,1.37427E-4,1.6495265E0,1.3599517E0,6.245899E-4,6.8663916E-4,4.744881E-4,5.744018E-4],"categories":[0,1,5,0,5,0,4,5],"categories_nodes":[3,4,6],"categories_segments":[0,3,5],"categories_sizes":[3,2,3],"default_left":[0,0,0,1,1,0,1,0,0,0,0,0,0,0,0,0,0,0,0,0,0,0,0,0,0,0,0,0,0],"id":32,"left_children":[1,3,5,7,23,11,13,17,9,-1,-1,-1,15,19,21,-1,-1,-1,-1,-1,-1,-1,-1,25,27,-1,-1,-1,-1],"loss_changes":[5.4660254E2,2.1563428E2,1.19265335E2,7.971265E1,1.0103516E1,5.0661674E1,4.9831985E1,3.695233E1,7.963367E1,0E0,0E0,0E0,4.6826393E1,3.3473785E1,1.9327168E1,0E0,0E0,0E0,0E0,0E0,0E0,0E0,0E0,6.460449E0,8.0737305E-1,0E0,0E0,0E0,0E0],"parents":[2147483647,0,0,1,1,2,2,3,3,8,8,5,5,6,6,12,12,7,7,13,13,14,14,4,4,23,23,24,24],"right_children":[2,4,6,8,24,12,14,18,10,-1,-1,-1,16,20,22,-1,-1,-1,-1,-1,-1,-1,-1,26,28,-1,-1,-1,-1],"split_conditions":[4E0,7.04E2,6.39E2,NaN,NaN,5.46E2,NaN,3.1E1,5.61E2,-4.3991004E-4,3.2298182E-4,-6.4988394E-4,5.76E2,3.3E1,7.37E2,2.248046E-4,-2.698615E-4,5.3057494E-4,9.1843984E-5,3.9889192E-4,-3.639272E-5,-3.544982E-4,1.37427E-4,7.9E2,7.55E2,6.245899E-4,6.8663916E-4,4.744881E-4,5.744018E-4],"split_indices":[2,1,1,15,15,1,15,3,1,0,0,0,1,3,1,0,0,0,0,0,0,0,0,1,1,0,0,0,0],"split_type":[0,0,0,1,1,0,1,0,0,0,0,0,0,0,0,0,0,0,0,0,0,0,0,0,0,0,0,0,0],"sum_hessian":[3.1447805E3,2.7475386E3,3.9724207E2,1.0449452E3,1.7025934E3,1.5874815E2,2.3849391E2,5.8846545E2,4.564797E2,2.149974E1,4.3497998E2,3.0999424E1,1.27748726E2,1.9049492E2,4.7998993E1,4.5249523E1,8.249921E1,5.564663E2,3.199913E1,1.5749527E2,3.2999657E1,2.524962E1,2.2749374E1,1.5351057E3,1.6748763E2,9.1367004E2,6.2143567E2,6.949533E1,9.7992294E1],"tree_param":{"num_deleted":"0","num_feature":"16","num_nodes":"29","size_leaf_vector":"0"}},{"base_weights":[1.2418057E0,1.3483434E0,2.2947188E-1,1.4217256E0,8.918965E-1,4.8015124E-1,-9.419152E-1,-2.4092676E-4,6.500397E-1,9.685446E-1,1.4609274E0,1.109864E0,4.9253705E-1,-1.7795814E-4,3.4715107E-4,9.509863E-5,3.8646968E-4,-5.4144417E-4,-1.06806154E-4,3.680181E-4,5.749899E-4,4.407668E-4,1.8831779E-4,6.307564E-4,5.623987E-4],"categories":[],"categories_nodes":[],"categories_segments":[],"categories_sizes":[],"default_left":[0,0,0,0,0,0,0,0,0,0,0,0,0,0,0,0,0,0,0,0,0,0,0,0,0],"id":33,"left_children":[1,3,5,9,11,7,17,-1,15,21,23,19,13,-1,-1,-1,-1,-1,-1,-1,-1,-1,-1,-1,-1],"loss_changes":[3.3670166E2,9.342383E1,8.8175575E1,4.1822266E1,3.3770172E1,4.6148605E1,1.4983105E1,0E0,2.8673225E1,1.392514E1,8.331055E0,1.4265564E1,5.207609E1,0E0,0E0,0E0,0E0,0E0,0E0,0E0,0E0,0E0,0E0,0E0,0E0],"parents":[2147483647,0,0,1,1,2,2,5,5,3,3,4,4,12,12,8,8,6,6,11,11,9,9,10,10],"right_children":[2,4,6,10,12,8,18,-1,16,22,24,20,14,-1,-1,-1,-1,-1,-1,-1,-1,-1,-1,-1,-1],"split_conditions":[3.1E1,5E0,3.7E1,2.8E1,2.7E1,2.8E1,3.1E1,-2.4092676E-4,3.1E1,1.42E2,1.9E1,4.5E1,3.2E1,-1.7795814E-4,3.4715107E-4,9.509863E-5,3.8646968E-4,-5.4144417E-4,-1.06806154E-4,3.680181E-4,5.749899E-4,4.407668E-4,1.8831779E-4,6.307564E-4,5.623987E-4],"split_indices":[3,6,3,12,3,12,6,0,5,5,3,6,12,0,0,0,0,0,0,0,0,0,0,0,0],"split_type":[0,0,0,0,0,0,0,0,0,0,0,0,0,0,0,0,0,0,0,0,0,0,0,0,0],"sum_hessian":[3.1237673E3,2.8260256E3,2.977418E2,2.4327942E3,3.9323138E2,2.4574248E2,5.199932E1,3.2749447E1,2.1299303E2,1.9573735E2,2.237057E3,2.5323723E2,1.3999416E2,4.0748745E1,9.924541E1,9.599761E1,1.1699542E2,3.0999483E1,2.0999838E1,1.7074194E2,8.249528E1,1.489902E2,4.674715E1,4.2971002E2,1.8073468E3],"tree_param":{"num_deleted":"0","num_feature":"16","num_nodes":"25","size_leaf_vector":"0"}},{"base_weights":[1.2383862E0,1.4041415E0,2.3985998E-1,1.5908494E0,1.1450772E0,-1.6203281E-1,7.194997E-1,6.369202E-2,-5.076767E-4,9.7212577E-1,1.3915925E0,5.818484E-4,3.159932E-4,8.9511716E-1,-1.0164117E-4,7.931343E-5,-4.3003933E-4,1.6151724E0,1.0749899E0,4.691254E-4,2.5887106E-4,6.826724E-4,6.0778763E-4,6.02698E-4,4.9027835E-4,5.121825E-4,2.3153667E-4],"categories":[],"categories_nodes":[],"categories_segments":[],"categories_sizes":[],"default_left":[0,0,0,0,0,0,0,0,0,0,0,0,0,0,0,0,0,0,0,0,0,0,0,0,0,0,0],"id":34,"left_children":[1,3,5,17,9,7,13,15,-1,11,23,-1,-1,19,-1,-1,-1,21,25,-1,-1,-1,-1,-1,-1,-1,-1],"loss_changes":[5.2052686E2,1.2871582E2,8.671294E1,1.7910645E1,4.699231E1,6.2417E1,3.541668E1,3.2818687E1,0E0,5.6344543E1,7.5479736E0,0E0,0E0,1.14561615E1,0E0,0E0,0E0,1.0089844E1,7.2814255E0,0E0,0E0,0E0,0E0,0E0,0E0,0E0,0E0],"parents":[2147483647,0,0,1,1,2,2,5,5,4,4,9,9,6,6,7,7,3,3,13,13,17,17,10,10,18,18],"right_children":[2,4,6,18,10,8,14,16,-1,12,24,-1,-1,20,-1,-1,-1,22,26,-1,-1,-1,-1,-1,-1,-1,-1],"split_conditions":[5.2E1,3.1E1,1E0,3.1E1,7E0,3.4E1,5E1,7.2E1,-5.076767E-4,1E0,3.9E1,5.818484E-4,3.159932E-4,6E0,-1.0164117E-4,7.931343E-5,-4.3003933E-4,1.8E1,3.1E1,4.691254E-4,2.5887106E-4,6.826724E-4,6.0778763E-4,6.02698E-4,4.9027835E-4,5.121825E-4,2.3153667E-4],"split_indices":[0,0,11,3,11,3,4,0,0,5,0,0,0,11,0,0,0,0,4,0,0,0,0,0,0,0,0],"split_type":[0,0,0,0,0,0,0,0,0,0,0,0,0,0,0,0,0,0,0,0,0,0,0,0,0,0,0],"sum_hessian":[3.1460037E3,2.697768E3,4.4823566E2,1.5648434E3,1.1329247E3,2.4424423E2,2.0399141E2,2.0424492E2,3.9999313E1,6.687107E2,4.6421393E2,1.6698622E2,5.017245E2,1.7299213E2,3.0999285E1,1.8324513E2,2.0999786E1,1.4923473E3,7.2496124E1,7.54968E1,9.749533E1,5.65437E2,9.269103E2,2.3547935E2,2.2873457E2,4.8497322E1,2.3998804E1],"tree_param":{"num_deleted":"0","num_feature":"16","num_nodes":"27","size_leaf_vector":"0"}},{"base_weights":[1.2257131E0,1.3843266E0,1.7456515E-1,1.0372124E0,1.6096438E0,-5.1980275E-1,6.72104E-1,-6.429208E-4,-2.774265E-1,2.3624095E-1,1.0846564E0,3.1899172E-4,-2.939451E-4,8.2567996E-1,-8.261698E-5,3.248748E-5,-3.5921021E-4,4.3923577E-4,4.0356066E-5,1.3042398E-4,3.8146874E-4,1.5405029E0,1.7141725E0,6.1813806E-4,4.7195153E-4,6.814472E-4,5.538599E-4],"categories":[],"categories_nodes":[],"categories_segments":[],"categories_sizes":[],"default_left":[0,0,0,0,0,0,0,0,0,0,0,0,0,0,0,0,0,0,0,0,0,0,0,0,0,0,0],"id":35,"left_children":[1,3,5,9,21,7,13,-1,15,11,17,-1,-1,19,-1,-1,-1,-1,-1,-1,-1,23,25,-1,-1,-1,-1],"loss_changes":[5.1902637E2,2.0996924E2,1.4181786E2,4.032666E1,9.205078E0,4.574536E1,3.253521E1,0E0,3.2469482E1,3.493371E1,2.9358276E1,0E0,0E0,1.4012131E1,0E0,0E0,0E0,0E0,0E0,0E0,0E0,7.635498E0,5.1123047E-1,0E0,0E0,0E0,0E0],"parents":[2147483647,0,0,1,1,2,2,5,5,3,3,9,9,6,6,8,8,10,10,13,13,4,4,21,21,22,22],"right_children":[2,4,6,10,22,8,14,-1,16,12,18,-1,-1,20,-1,-1,-1,-1,-1,-1,-1,24,26,-1,-1,-1,-1],"split_conditions":[4E0,7.04E2,6.43E2,5.63E2,7.9E2,5.47E2,3.4E1,-6.429208E-4,6E0,2.6E1,2E0,3.1899172E-4,-2.939451E-4,1E1,-8.261698E-5,3.248748E-5,-3.5921021E-4,4.3923577E-4,4.0356066E-5,1.3042398E-4,3.8146874E-4,3E0,2.8E1,6.1813806E-4,4.7195153E-4,6.814472E-4,5.538599E-4],"split_indices":[2,1,1,1,1,1,3,0,2,3,8,0,0,5,0,0,0,0,0,0,0,2,3,0,0,0,0],"split_type":[0,0,0,0,0,0,0,0,0,0,0,0,0,0,0,0,0,0,0,0,0,0,0,0,0,0,0],"sum_hessian":[3.1134937E3,2.705004E3,4.0848978E2,1.0669337E3,1.6380702E3,1.7049763E2,2.3799216E2,2.9499306E1,1.4099832E2,5.999809E1,1.00693555E3,3.7998543E1,2.1999546E1,2.0274245E2,3.52497E1,9.0498604E1,5.0499714E1,9.771867E2,2.9748873E1,4.5998627E1,1.5674382E2,9.9539813E2,6.4267206E2,9.1740466E2,7.799344E1,6.089254E2,3.37466E1],"tree_param":{"num_deleted":"0","num_feature":"16","num_nodes":"27","size_leaf_vector":"0"}},{"base_weights":[1.2491434E0,1.5181121E0,6.602425E-1,8.693104E-1,-7.529867E-2,5.239195E-1,1.1565803E0,3.4071872E-4,-5.2017138E-5,1.5925031E0,1.2584925E0,9.017075E-1,1.5775882E0,4.074242E-4,-2.3068322E-1,-2.520194E-4,1.070155E-4,4.582406E-4,1.2927527E-4,6.912478E-4,1.5097857E0,5.0305075E-4,3.0689896E-4,5.4774195E-4,6.330244E-4,6.4036617E-4,4.5442086E-4],"categories":[],"categories_nodes":[],"categories_segments":[],"categories_sizes":[],"default_left":[0,0,0,0,0,0,0,0,0,0,0,0,0,0,0,0,0,0,0,0,0,0,0,0,0,0,0],"id":36,"left_children":[1,9,3,5,13,7,21,-1,-1,19,11,17,25,-1,15,-1,-1,-1,-1,-1,23,-1,-1,-1,-1,-1,-1],"loss_changes":[4.9873242E2,3.981006E1,1.5245209E2,7.596307E1,3.81918E1,7.8790764E1,1.8035767E1,0E0,0E0,1.9757812E1,5.4017517E1,3.438513E1,3.2459717E0,0E0,3.9995007E1,0E0,0E0,0E0,0E0,0E0,1.0686279E1,0E0,0E0,0E0,0E0,0E0,0E0],"parents":[2147483647,0,0,2,2,3,3,5,5,1,1,10,10,4,4,14,14,11,11,9,9,6,6,20,20,12,12],"right_children":[2,10,4,6,14,8,22,-1,-1,20,12,18,26,-1,16,-1,-1,-1,-1,-1,24,-1,-1,-1,-1,-1,-1],"split_conditions":[4E1,7E0,6.1E1,1E0,1E0,1E0,8.9E1,3.4071872E-4,-5.2017138E-5,1.9E1,4E0,3.1E1,5.4E1,4.074242E-4,7.1E1,-2.520194E-4,1.070155E-4,4.582406E-4,1.2927527E-4,6.912478E-4,2E0,5.0305075E-4,3.0689896E-4,5.4774195E-4,6.330244E-4,6.4036617E-4,4.5442086E-4],"split_indices":[0,10,0,11,5,10,5,0,0,0,11,0,10,0,5,0,0,0,0,0,11,0,0,0,0,0,0],"split_type":[0,0,0,0,0,0,0,0,0,0,0,0,0,0,0,0,0,0,0,0,0,0,0,0,0,0,0],"sum_hessian":[3.1539731E3,2.1640215E3,9.8995166E2,7.707066E2,2.1924506E2,3.5123407E2,4.1947253E2,2.309858E2,1.20248276E2,1.678059E3,4.8596252E2,2.3123807E2,2.5472444E2,2.6248875E1,1.9299617E2,1.06248314E2,8.674786E1,1.5824048E2,7.29976E1,5.6192773E2,1.1161312E3,3.167299E2,1.02742645E2,5.0369827E2,6.124329E2,2.2672737E2,2.7997076E1],"tree_param":{"num_deleted":"0","num_feature":"16","num_nodes":"27","size_leaf_vector":"0"}},{"base_weights":[1.2349648E0,1.4987538E0,5.953597E-1,8.734697E-1,-2.8252292E-1,1.5656102E0,7.14067E-1,1.0686914E0,3.0634034E-1,-8.84778E-1,7.567586E-2,1.0908644E0,1.5272045E-1,1.8980535E-4,-3.239394E-4,1.1974574E-4,-2.9544786E-4,1.6712885E0,1.4481255E0,-1.9663486E-4,-6.3382665E-4,-1.6287775E-4,2.1095436E-4,5.863105E-4,4.0958344E-4,4.3784708E-4,1.918893E-4,6.168891E-4,3.386E-4,4.3817857E-4,6.6369167E-4],"categories":[],"categories_nodes":[],"categories_segments":[],"categories_sizes":[],"default_left":[0,0,0,0,0,0,0,0,0,0,0,0,0,0,0,0,0,0,0,0,0,0,0,0,0,0,0,0,0,0,0],"id":37,"left_children":[1,5,3,7,9,17,11,25,13,19,15,27,21,-1,-1,-1,-1,29,23,-1,-1,-1,-1,-1,-1,-1,-1,-1,-1,-1,-1],"loss_changes":[5.271128E2,1.15083984E2,2.237529E2,7.667084E1,4.7741875E1,2.2910645E1,3.7005493E1,1.2155273E1,3.5882175E1,2.222551E1,2.6492579E1,1.019738E1,1.57540455E1,0E0,0E0,0E0,0E0,5.668701E0,1.4163818E1,0E0,0E0,0E0,0E0,0E0,0E0,0E0,0E0,0E0,0E0,0E0,0E0],"parents":[2147483647,0,0,2,2,1,1,3,3,4,4,6,6,8,8,10,10,5,5,9,9,12,12,18,18,7,7,11,11,17,17],"right_children":[2,6,4,8,10,18,12,26,14,20,16,28,22,-1,-1,-1,-1,30,24,-1,-1,-1,-1,-1,-1,-1,-1,-1,-1,-1,-1],"split_conditions":[4.1E1,4E0,4E0,5.8E1,3.1E1,2.5E1,2.9E1,5.1E1,7.2E1,8.8E1,6.4E1,3.2E1,3.6E1,1.8980535E-4,-3.239394E-4,1.1974574E-4,-2.9544786E-4,2.7E1,3E0,-1.9663486E-4,-6.3382665E-4,-1.6287775E-4,2.1095436E-4,5.863105E-4,4.0958344E-4,4.3784708E-4,1.918893E-4,6.168891E-4,3.386E-4,4.3817857E-4,6.6369167E-4],"split_indices":[0,2,2,0,12,0,0,12,0,9,0,12,0,0,0,0,0,12,2,0,0,0,0,0,0,0,0,0,0,0,0],"split_type":[0,0,0,0,0,0,0,0,0,0,0,0,0,0,0,0,0,0,0,0,0,0,0,0,0,0,0,0,0,0,0],"sum_hessian":[3.1284587E3,2.2140051E3,9.1445355E2,6.944571E2,2.1999648E2,2.0392621E3,1.7474298E2,5.159637E2,1.7849341E2,8.149885E1,1.3849762E2,1.0399453E2,7.074844E1,1.5499373E2,2.3499668E1,1.08998E2,2.9499619E1,1.0666118E3,9.7265027E2,5.424921E1,2.7249641E1,2.8499512E1,4.2248928E1,8.8465717E2,8.799312E1,4.8021637E2,3.5747345E1,3.2248287E1,7.174625E1,2.5497099E1,1.0411147E3],"tree_param":{"num_deleted":"0","num_feature":"16","num_nodes":"31","size_leaf_vector":"0"}},{"base_weights":[1.2313284E0,1.383898E0,2.2529352E-1,1.0184872E0,1.6099088E0,-6.4367405E-4,3.7410676E-1,6.741322E-1,-3.3400676E-1,-9.713656E-5,1.0707294E0,-3.440467E-4,8.3040024E-5,3.3277026E-4,4.7651152E-4,1.9615413E-4,4.831643E-4,1.6326057E0,1.3086476E0,4.1572694E-4,6.296042E-4,6.233402E-4,6.8668934E-4],"categories":[],"categories_nodes":[],"categories_segments":[],"categories_sizes":[],"default_left":[0,0,0,0,0,0,0,0,0,0,0,0,0,0,0,0,0,0,0,0,0,0,0],"id":38,"left_children":[1,3,5,9,17,-1,7,15,11,-1,13,-1,-1,-1,-1,-1,-1,21,19,-1,-1,-1,-1],"loss_changes":[4.787998E2,2.2218701E2,1.1461845E2,6.888623E1,9.30127E0,0E0,8.148583E1,2.5577995E1,3.3793766E1,0E0,3.020691E1,0E0,0E0,0E0,0E0,0E0,0E0,5.934082E0,7.2764587E0,0E0,0E0,0E0,0E0],"parents":[2147483647,0,0,1,1,2,2,6,6,3,3,8,8,10,10,7,7,4,4,18,18,17,17],"right_children":[2,4,6,10,18,-1,8,16,12,-1,14,-1,-1,-1,-1,-1,-1,22,20,-1,-1,-1,-1],"split_conditions":[4E0,7.04E2,5.48E2,5.58E2,3E0,-6.4367405E-4,6E0,7.53E2,6.6E2,-9.713656E-5,1E0,-3.440467E-4,8.3040024E-5,3.3277026E-4,4.7651152E-4,1.9615413E-4,4.831643E-4,8.05E2,7.82E2,4.1572694E-4,6.296042E-4,6.233402E-4,6.8668934E-4],"split_indices":[2,1,1,1,2,0,2,1,1,0,11,0,0,0,0,0,0,1,1,0,0,0,0],"split_type":[0,0,0,0,0,0,0,0,0,0,0,0,0,0,0,0,0,0,0,0,0,0,0],"sum_hessian":[3.120444E3,2.7092053E3,4.112386E2,1.0374229E3,1.6717826E3,2.9749174E1,3.814894E2,2.6799063E2,1.1349879E2,4.0998825E1,9.96424E2,5.6749725E1,5.674906E1,3.8047546E2,6.1594855E2,2.0449423E2,6.3496395E1,1.5505461E3,1.21236435E2,6.699371E1,5.4242725E1,1.068367E3,4.8217923E2],"tree_param":{"num_deleted":"0","num_feature":"16","num_nodes":"23","size_leaf_vector":"0"}},{"base_weights":[1.2275233E0,1.4921985E0,5.9578395E-1,8.0739576E-1,-1.2717703E-1,9.5999557E-1,2.0578533E-1,1.5640576E0,1.099915E0,1.04633324E-1,-8.803323E-1,1.5245985E-4,-3.0110712E-4,1.384215E0,8.311414E-1,1.6669991E0,1.4440625E0,1.1050462E-4,-2.3237002E-4,-1.0434791E-4,-6.054666E-4,4.121081E-4,2.3863194E-4,4.640337E-4,2.4283533E-4,6.120257E-4,3.739226E-4,6.417992E-4,5.5136095E-4,6.775148E-4,6.3343823E-4],"categories":[],"categories_nodes":[],"categories_segments":[],"categories_sizes":[],"default_left":[0,0,0,0,0,0,0,0,0,0,0,0,0,0,0,0,0,0,0,0,0,0,0,0,0,0,0,0,0,0,0],"id":39,"left_children":[1,7,3,5,9,21,11,15,13,17,19,-1,-1,25,23,29,27,-1,-1,-1,-1,-1,-1,-1,-1,-1,-1,-1,-1,-1,-1],"loss_changes":[5.2621436E2,6.0887207E1,1.4275534E2,6.603604E1,3.7104122E1,1.6823975E1,2.614561E1,2.0750488E1,2.5381775E1,2.0050358E1,1.977938E1,0E0,0E0,1.0806946E1,1.2747536E1,3.564453E-1,4.9886475E0,0E0,0E0,0E0,0E0,0E0,0E0,0E0,0E0,0E0,0E0,0E0,0E0,0E0,0E0],"parents":[2147483647,0,0,2,2,3,3,1,1,4,4,6,6,8,8,7,7,9,9,10,10,5,5,14,14,13,13,16,16,15,15],"right_children":[2,8,4,6,10,22,12,16,14,18,20,-1,-1,26,24,30,28,-1,-1,-1,-1,-1,-1,-1,-1,-1,-1,-1,-1,-1,-1],"split_conditions":[4.1E1,4E0,6.1E1,3E1,7.2E1,7E0,3.7E1,2.5E1,2.6E1,1.01E2,2.8E1,1.5245985E-4,-3.0110712E-4,3E1,2.6E1,1.8E1,1.9E1,1.1050462E-4,-2.3237002E-4,-1.0434791E-4,-6.054666E-4,4.121081E-4,2.3863194E-4,4.640337E-4,2.4283533E-4,6.120257E-4,3.739226E-4,6.417992E-4,5.5136095E-4,6.775148E-4,6.3343823E-4],"split_indices":[0,6,0,3,0,6,3,0,3,9,3,0,0,0,0,0,3,0,0,0,0,0,0,0,0,0,0,0,0,0,0],"split_type":[0,0,0,0,0,0,0,0,0,0,0,0,0,0,0,0,0,0,0,0,0,0,0,0,0,0,0,0,0,0,0],"sum_hessian":[3.1514258E3,2.2199766E3,9.3144904E2,7.2045416E2,2.1099486E2,5.7420905E2,1.4624512E2,1.8737523E3,3.462243E2,1.6199593E2,4.8998936E1,1.23745316E2,2.24998E1,1.6623558E2,1.7998872E2,1.00160345E3,8.7214886E2,1.297465E2,3.2249413E1,2.5999498E1,2.2999437E1,4.6096408E2,1.1324496E2,6.724469E1,1.1274403E2,1.1798901E2,4.824657E1,1.6472983E2,7.0741907E2,5.2117E2,4.804335E2],"tree_param":{"num_deleted":"0","num_feature":"16","num_nodes":"31","size_leaf_vector":"0"}},{"base_weights":[1.2473717E0,1.408678E0,1.4155652E-1,5.173637E-1,-5.830635E-1,1.5736485E0,1.198834E0,3.1561498E-2,-1.3780855E0,8.207887E-1,-2.4585968E-1,1.2495017E0,4.568927E-1,5.0842867E-4,2.1186189E-4,-2.7595478E-4,1.1965753E-4,4.933349E-4,2.3294304E-4,2.9167754E-4,-3.008022E-5,1.6019429E0,1.2841555E0,5.883152E-4,2.3357492E-4,-3.951131E-4,-7.542644E-4,1.0573541E-4,-1.9588722E-4,6.4525224E-4,5.497021E-4],"categories":[],"categories_nodes":[],"categories_segments":[],"categories_sizes":[],"default_left":[0,0,0,0,0,0,0,0,0,0,0,0,0,0,0,0,0,0,0,0,0,0,0,0,0,0,0,0,0,0,0],"id":40,"left_children":[1,5,3,9,7,21,11,27,25,17,15,13,19,-1,-1,-1,-1,-1,-1,-1,-1,29,23,-1,-1,-1,-1,-1,-1,-1,-1],"loss_changes":[5.748198E2,9.55E1,1.123568E2,6.3073715E1,6.894046E1,1.0817383E1,4.61333E1,1.0204954E1,1.0454285E1,1.8516006E1,1.9682018E1,3.2805786E1,1.228512E1,0E0,0E0,0E0,0E0,0E0,0E0,0E0,0E0,8.128174E0,2.0021255E1,0E0,0E0,0E0,0E0,0E0,0E0,0E0,0E0],"parents":[2147483647,0,0,2,2,1,1,4,4,3,3,6,6,11,11,10,10,9,9,12,12,5,5,22,22,8,8,7,7,21,21],"right_children":[2,6,4,10,8,22,12,28,26,18,16,14,20,-1,-1,-1,-1,-1,-1,-1,-1,30,24,-1,-1,-1,-1,-1,-1,-1,-1],"split_conditions":[4E0,3.3E1,3.9E1,6E0,3E1,2.9E1,3.1E1,2.7E1,4.5E1,2.5E1,3E1,5.4E1,3E0,5.0842867E-4,2.1186189E-4,-2.7595478E-4,1.1965753E-4,4.933349E-4,2.3294304E-4,2.9167754E-4,-3.008022E-5,8E0,3E1,5.883152E-4,2.3357492E-4,-3.951131E-4,-7.542644E-4,1.0573541E-4,-1.9588722E-4,6.4525224E-4,5.497021E-4],"split_indices":[2,4,4,2,3,3,3,3,7,3,10,4,2,0,0,0,0,0,0,0,0,10,4,0,0,0,0,0,0,0,0],"split_type":[0,0,0,0,0,0,0,0,0,0,0,0,0,0,0,0,0,0,0,0,0,0,0,0,0,0,0,0,0,0,0],"sum_hessian":[3.2226511E3,2.8121638E3,4.104872E2,2.7048993E2,1.3999727E2,1.570783E3,1.2413809E3,7.949818E1,6.0499084E1,1.9349084E2,7.699909E1,1.1613849E3,7.999603E1,1.098139E3,6.3245804E1,4.19995E1,3.499959E1,6.574612E1,1.2774473E2,5.1996643E1,2.7999393E1,1.4267975E3,1.4398547E2,1.09738434E2,3.424704E1,3.724947E1,2.3249615E1,5.5248474E1,2.4249702E1,1.2138226E3,2.1297478E2],"tree_param":{"num_deleted":"0","num_feature":"16","num_nodes":"31","size_leaf_vector":"0"}},{"base_weights":[1.22681E0,1.3848E0,1.522147E-1,1.4693075E0,8.3840007E-1,7.701701E-1,-2.8944904E-1,9.9606104E-2,-9.4012797E-1,-1.2775969E-4,9.7333676E-1,1.6052669E0,1.2866224E0,4.3675813E-4,4.3208747E-6,1.9402418E-4,-2.1001563E-4,-5.3097913E-4,-3.9815775E-5,5.219081E-4,2.6978014E-4,9.857515E-1,3.8381457E-1,3.0553088E-4,-7.175239E-5,6.463726E-4,5.130302E-4,4.616415E-4,1.5816312E-4],"categories":[0,5,0,3,4,5],"categories_nodes":[1,5],"categories_segments":[0,2],"categories_sizes":[2,4],"default_left":[0,1,0,0,0,1,0,0,0,0,0,0,0,0,0,0,0,0,0,0,0,0,0,0,0,0,0,0,0],"id":41,"left_children":[1,3,5,11,9,21,7,15,17,-1,13,25,19,-1,-1,-1,-1,-1,-1,-1,-1,27,23,-1,-1,-1,-1,-1,-1],"loss_changes":[5.2412305E2,1.2309033E2,1.08572136E2,5.5817383E1,5.725435E1,1.3426567E1,5.8886333E1,3.658194E1,2.958033E1,0E0,4.2210632E1,1.1900391E1,2.1694824E1,0E0,0E0,0E0,0E0,0E0,0E0,0E0,0E0,1.0995911E1,1.3650024E1,0E0,0E0,0E0,0E0,0E0,0E0],"parents":[2147483647,0,0,1,1,2,2,6,6,4,4,3,3,10,10,7,7,8,8,12,12,5,5,22,22,11,11,21,21],"right_children":[2,4,6,12,10,22,8,16,18,-1,14,26,20,-1,-1,-1,-1,-1,-1,-1,-1,28,24,-1,-1,-1,-1,-1,-1],"split_conditions":[4E0,NaN,3.2E1,3.3E1,2.7E1,NaN,6E0,4.2E1,5.1E1,-1.2775969E-4,4.5E1,1E0,5.4E1,4.3675813E-4,4.3208747E-6,1.9402418E-4,-2.1001563E-4,-5.3097913E-4,-3.9815775E-5,5.219081E-4,2.6978014E-4,6E0,2E1,3.0553088E-4,-7.175239E-5,6.463726E-4,5.130302E-4,4.616415E-4,1.5816312E-4],"split_indices":[2,15,4,4,12,15,2,4,4,0,4,6,4,0,0,0,0,0,0,0,0,2,6,0,0,0,0,0,0],"split_type":[0,1,0,0,0,1,0,0,0,0,0,0,0,0,0,0,0,0,0,0,0,0,0,0,0,0,0,0,0],"sum_hessian":[3.0873997E3,2.691412E3,3.9598755E2,2.3294456E3,3.6196655E2,1.64743E2,2.3124455E2,1.4524582E2,8.599873E1,3.7498135E1,3.244684E2,1.331052E3,9.983935E2,2.8447064E2,3.9997795E1,8.9746765E1,5.5499058E1,5.7499256E1,2.8499477E1,9.386475E2,5.9746E1,1.0474515E2,5.9997852E1,3.524855E1,2.4749302E1,1.1905668E3,1.4048517E2,7.874558E1,2.599956E1],"tree_param":{"num_deleted":"0","num_feature":"16","num_nodes":"29","size_leaf_vector":"0"}},{"base_weights":[1.2427256E0,1.3964438E0,1.6687E-1,1.5649426E0,8.9875644E-1,-2.6546523E-1,1.0477438E0,1.0709242E0,-7.202323E-1,9.653366E-1,-2.70052E-4,4.2794153E-4,2.1147483E-4,-3.0952477E-5,-3.7226686E-4,1.6302158E0,1.3921206E0,1.1924962E0,1.379406E-4,3.4220275E-4,5.6219666E-4,6.2409515E-4,5.172804E-4,6.8018155E-4,6.179786E-4,4.996209E-4,3.2262848E-4],"categories":[0],"categories_nodes":[8],"categories_segments":[0],"categories_sizes":[1],"default_left":[0,0,0,0,0,0,0,0,1,0,0,0,0,0,0,0,0,0,0,0,0,0,0,0,0,0,0],"id":42,"left_children":[1,3,5,15,9,7,17,25,13,11,-1,-1,-1,-1,-1,23,21,19,-1,-1,-1,-1,-1,-1,-1,-1,-1],"loss_changes":[5.197788E2,2.2930225E2,1.504165E2,2.090039E1,7.429181E1,1.6197224E2,1.2712311E1,2.3253174E0,2.8493614E1,3.403894E1,0E0,0E0,0E0,0E0,0E0,6.1308594E0,6.6105957E0,6.895569E0,0E0,0E0,0E0,0E0,0E0,0E0,0E0,0E0,0E0],"parents":[2147483647,0,0,1,1,2,2,5,5,4,4,9,9,8,8,3,3,6,6,17,17,16,16,15,15,7,7],"right_children":[2,4,6,16,10,8,18,26,14,12,-1,-1,-1,-1,-1,24,22,20,-1,-1,-1,-1,-1,-1,-1,-1,-1],"split_conditions":[4E0,4.1E1,1E0,3.1E1,7.1E1,2.9E1,5.3E1,2E1,NaN,5.8E1,-2.70052E-4,4.2794153E-4,2.1147483E-4,-3.0952477E-5,-3.7226686E-4,1.8E1,1E0,3.7E1,1.379406E-4,3.4220275E-4,5.6219666E-4,6.2409515E-4,5.172804E-4,6.8018155E-4,6.179786E-4,4.996209E-4,3.2262848E-4],"split_indices":[2,0,11,0,0,0,0,6,13,0,0,0,0,0,0,0,2,0,0,0,0,0,0,0,0,0,0],"split_type":[0,0,0,0,0,0,0,0,1,0,0,0,0,0,0,0,0,0,0,0,0,0,0,0,0,0,0],"sum_hessian":[3.1433708E3,2.7501338E3,3.9323697E2,2.052939E3,6.971948E2,2.6424396E2,1.2899301E2,6.674643E1,1.9749754E2,6.694454E2,2.7749458E1,5.214532E2,1.4799217E2,5.1499435E1,1.4599811E2,1.48401E3,5.6892896E2,1.0624352E2,2.2749485E1,4.649666E1,5.9746864E1,1.6172716E2,4.072018E2,5.7514905E2,9.088609E2,3.5247753E1,3.1498674E1],"tree_param":{"num_deleted":"0","num_feature":"16","num_nodes":"27","size_leaf_vector":"0"}},{"base_weights":[1.2324604E0,1.3953217E0,1.4530009E-1,1.5911554E0,1.1231561E0,3.2279554E-1,-1.3394413E0,4.288742E-1,-2.682385E-4,1.249566E0,8.667444E-1,4.8049005E-5,3.951329E-4,-1.8816773E-4,2.0472893E-4,2.9787692E-4,5.192186E-4,-7.5249287E-4,-2.798915E-4,1.6367806E0,1.4241494E0,6.6544E-4,5.92167E-4,5.953451E-4,5.045459E-4],"categories":[],"categories_nodes":[],"categories_segments":[],"categories_sizes":[],"default_left":[0,0,0,0,0,0,0,0,0,0,0,0,0,0,0,0,0,0,0,0,0,0,0,0,0],"id":43,"left_children":[1,3,5,19,9,7,17,13,-1,15,11,-1,-1,-1,-1,-1,-1,-1,-1,21,23,-1,-1,-1,-1],"loss_changes":[5.5577246E2,1.437666E2,1.0854244E2,9.752197E0,3.606653E1,3.93785E1,1.4420586E1,2.7557194E1,0E0,2.4626099E1,3.8483673E1,0E0,0E0,0E0,0E0,0E0,0E0,0E0,0E0,6.045166E0,2.3938599E0,0E0,0E0,0E0,0E0],"parents":[2147483647,0,0,1,1,2,2,5,5,4,4,10,10,7,7,9,9,6,6,3,3,19,19,20,20],"right_children":[2,4,6,20,10,8,18,14,-1,16,12,-1,-1,-1,-1,-1,-1,-1,-1,22,24,-1,-1,-1,-1],"split_conditions":[5.3E1,3.1E1,7.2E1,8E0,6E0,5.4E1,5E1,2.6E1,-2.682385E-4,2.9E1,6E0,4.8049005E-5,3.951329E-4,-1.8816773E-4,2.0472893E-4,2.9787692E-4,5.192186E-4,-7.5249287E-4,-2.798915E-4,3.2E1,2.4E1,6.6544E-4,5.92167E-4,5.953451E-4,5.045459E-4],"split_indices":[0,0,0,10,10,4,4,12,0,12,5,0,0,0,0,0,0,0,0,4,0,0,0,0,0],"split_type":[0,0,0,0,0,0,0,0,0,0,0,0,0,0,0,0,0,0,0,0,0,0,0,0,0],"sum_hessian":[3.1391055E3,2.729875E3,4.0923068E2,1.5847444E3,1.1451305E3,3.662316E2,4.2999065E1,3.3173254E2,3.4499073E1,7.644073E2,3.807232E2,5.8996494E1,3.217267E2,2.974911E1,3.0198343E2,9.373984E1,6.706674E2,2.1499447E1,2.1499619E1,1.2377867E3,3.4695764E2,8.860898E2,3.51697E2,2.1097157E2,1.3598605E2],"tree_param":{"num_deleted":"0","num_feature":"16","num_nodes":"25","size_leaf_vector":"0"}},{"base_weights":[1.2299868E0,1.3866887E0,1.6329153E-1,1.5569024E0,8.9752495E-1,1.1834315E0,-2.1217072E-1,2.3755302E-1,-7.589004E-1,1.0782162E0,4.0720066E-1,1.7331696E-4,-4.2543327E-4,-5.3064764E-4,-1.15295436E-4,1.6594605E0,1.4312748E0,2.0880971E-4,-9.0012574E-5,4.381086E-4,2.3477446E-4,8.537954E-1,5.608767E-4,1.5501153E-4,4.888001E-4,6.2685146E-4,5.392639E-4,6.586492E-4,4.7595118E-4],"categories":[],"categories_nodes":[],"categories_segments":[],"categories_sizes":[],"default_left":[0,0,0,0,0,0,0,0,0,0,0,0,0,0,0,0,0,0,0,0,0,0,0,0,0,0,0,0,0],"id":44,"left_children":[1,3,5,15,9,21,7,11,13,19,17,-1,-1,-1,-1,27,25,-1,-1,-1,-1,23,-1,-1,-1,-1,-1,-1,-1],"loss_changes":[5.189673E2,2.2408594E2,1.5307214E2,2.34917E1,6.1706726E1,7.275482E0,7.209777E1,4.340941E1,3.58385E1,7.576294E0,1.49631405E1,0E0,0E0,0E0,0E0,3.7714844E0,6.9538574E0,0E0,0E0,0E0,0E0,8.007874E0,0E0,0E0,0E0,0E0,0E0,0E0,0E0],"parents":[2147483647,0,0,1,1,2,2,6,6,4,4,7,7,8,8,3,3,10,10,9,9,5,5,21,21,16,16,15,15],"right_children":[2,4,6,16,10,22,8,12,14,20,18,-1,-1,-1,-1,28,26,-1,-1,-1,-1,24,-1,-1,-1,-1,-1,-1,-1],"split_conditions":[4E0,4.1E1,2.9E1,2.6E1,5.8E1,1.9E1,3E1,7E0,2.2E1,3.1E1,7.2E1,1.7331696E-4,-4.2543327E-4,-5.3064764E-4,-1.15295436E-4,5E1,1E0,2.0880971E-4,-9.0012574E-5,4.381086E-4,2.3477446E-4,2.5E1,5.608767E-4,1.5501153E-4,4.888001E-4,6.2685146E-4,5.392639E-4,6.586492E-4,4.7595118E-4],"split_indices":[2,0,0,0,0,5,3,2,10,3,0,0,0,0,0,10,2,0,0,0,0,0,0,0,0,0,0,0,0],"split_type":[0,0,0,0,0,0,0,0,0,0,0,0,0,0,0,0,0,0,0,0,0,0,0,0,0,0,0,0,0],"sum_hessian":[3.1050942E3,2.7071086E3,3.979855E2,2.0066682E3,7.0044055E2,1.06492065E2,2.9149344E2,1.602456E2,1.3124782E2,5.1094962E2,1.894909E2,1.3949571E2,2.0749886E1,5.7249016E1,7.39988E1,1.0980486E3,9.086197E2,1.5899141E2,3.0499489E1,4.7670163E2,3.4248E1,4.6746967E1,5.9745102E1,2.2248508E1,2.4498459E1,2.5096057E2,6.576591E2,1.0678035E3,3.0245083E1],"tree_param":{"num_deleted":"0","num_feature":"16","num_nodes":"29","size_leaf_vector":"0"}},{"base_weights":[1.2488173E0,1.3942108E0,3.137385E-1,6.42223E-1,-3.7601122E-1,1.4679564E0,9.075612E-1,7.679922E-1,-1.3587502E-4,1.5097448E0,1.112523E0,3.778028E-4,9.06247E-5,1.3022342E-1,-7.4750245E-1,9.970247E-1,1.8781896E-1,3.2752805E-4,5.541857E-4,-1.7600635E-4,-5.9387175E-4,-1.3473231E-4,2.7988356E-4,3.6358638E-4,5.693082E-4,6.3516275E-4,5.778255E-4,2.3139236E-4,-8.8669134E-5],"categories":[0,5,0,1,4,5,0,4,5],"categories_nodes":[1,4,7],"categories_segments":[0,2,6],"categories_sizes":[2,4,3],"default_left":[0,1,0,0,1,0,0,1,0,0,0,0,0,0,0,0,0,0,0,0,0,0,0,0,0,0,0,0,0],"id":45,"left_children":[1,5,3,7,13,9,15,11,-1,25,17,-1,-1,21,19,23,27,-1,-1,-1,-1,-1,-1,-1,-1,-1,-1,-1,-1],"loss_changes":[4.339453E2,9.789258E1,9.794688E1,3.65709E1,2.6378492E1,3.3958496E1,2.3409271E1,2.6411865E1,0E0,7.1723633E0,2.0005768E1,0E0,0E0,1.666727E1,1.7777676E1,9.529785E0,7.012508E0,0E0,0E0,0E0,0E0,0E0,0E0,0E0,0E0,0E0,0E0,0E0,0E0],"parents":[2147483647,0,0,2,2,1,1,3,3,5,5,7,7,4,4,6,6,10,10,14,14,13,13,15,15,9,9,16,16],"right_children":[2,6,4,8,14,10,16,12,-1,26,18,-1,-1,22,20,24,28,-1,-1,-1,-1,-1,-1,-1,-1,-1,-1,-1,-1],"split_conditions":[4E0,NaN,6E0,2E0,NaN,3E0,3E0,NaN,-1.3587502E-4,1E0,4.8E1,3.778028E-4,9.06247E-5,3E1,5.4E1,2.9E1,1E0,3.2752805E-4,5.541857E-4,-1.7600635E-4,-5.9387175E-4,-1.3473231E-4,2.7988356E-4,3.6358638E-4,5.693082E-4,6.3516275E-4,5.778255E-4,2.3139236E-4,-8.8669134E-5],"split_indices":[2,15,2,8,15,2,2,15,0,2,7,0,0,10,7,10,10,0,0,0,0,0,0,0,0,0,0,0,0],"split_type":[0,1,0,0,1,0,0,1,0,0,0,0,0,0,0,0,0,0,0,0,0,0,0,0,0,0,0,0,0],"sum_hessian":[3.194063E3,2.7638298E3,4.3023315E2,2.9148572E2,1.3874745E2,2.3983706E3,3.654592E2,2.5873666E2,3.2749046E1,2.143152E3,2.5521855E2,1.9048935E2,6.824731E1,5.8998753E1,7.97487E1,3.247124E2,4.0746807E1,1.322341E2,1.2298445E2,5.8249233E1,2.1499468E1,3.274946E1,2.6249294E1,2.8096695E2,4.3745438E1,6.32891E2,1.5102611E3,2.0498016E1,2.024879E1],"tree_param":{"num_deleted":"0","num_feature":"16","num_nodes":"29","size_leaf_vector":"0"}},{"base_weights":[1.244577E0,1.5057504E0,6.0659504E-1,8.229604E-1,-1.9586432E-1,1.2209914E0,1.5897634E0,-3.7003548E-3,-6.13423E-4,8.83004E-1,-8.435842E-5,-4.2065102E-4,8.8276676E-5,2.6848825E-4,4.302078E-4,1.6711556E0,1.4301887E0,1.3708854E0,1.0633945E0,5.4790784E-4,3.2469365E-4,5.494395E-4,7.024503E-4,3.9175886E-4,5.55133E-4,6.6122605E-4,4.996137E-4],"categories":[],"categories_nodes":[],"categories_segments":[],"categories_sizes":[],"default_left":[0,0,0,0,0,0,0,0,0,0,0,0,0,0,0,0,0,0,0,0,0,0,0,0,0,0,0],"id":46,"left_children":[1,5,3,9,7,17,15,11,-1,13,-1,-1,-1,-1,-1,25,21,23,19,-1,-1,-1,-1,-1,-1,-1,-1],"loss_changes":[5.361626E2,5.2756836E1,1.6300812E2,4.6198547E1,5.2280464E1,1.0948547E1,2.049707E1,4.2916164E1,0E0,2.8655762E1,0E0,0E0,0E0,0E0,0E0,9.1918945E-1,5.180298E0,2.3649902E0,1.924585E1,0E0,0E0,0E0,0E0,0E0,0E0,0E0,0E0],"parents":[2147483647,0,0,2,2,1,1,4,4,3,3,7,7,9,9,6,6,5,5,18,18,16,16,17,17,15,15],"right_children":[2,6,4,10,8,18,16,12,-1,14,-1,-1,-1,-1,-1,26,22,24,20,-1,-1,-1,-1,-1,-1,-1,-1],"split_conditions":[4.1E1,6.98E2,6.1E1,2E0,1.22E2,2.1E1,2.6E1,5.41E2,-6.13423E-4,6.56E2,-8.435842E-5,-4.2065102E-4,8.8276676E-5,2.6848825E-4,4.302078E-4,2E0,8.13E2,2.5E1,3.1E1,5.4790784E-4,3.2469365E-4,5.494395E-4,7.024503E-4,3.9175886E-4,5.55133E-4,6.6122605E-4,4.996137E-4],"split_indices":[0,1,0,8,9,9,0,1,0,1,0,0,0,0,0,8,1,0,0,0,0,0,0,0,0,0,0],"split_type":[0,0,0,0,0,0,0,0,0,0,0,0,0,0,0,0,0,0,0,0,0,0,0,0,0,0,0],"sum_hessian":[3.222285E3,2.2853584E3,9.369267E2,7.379337E2,1.9899297E2,5.241854E2,1.761173E3,1.7524352E2,2.3749453E1,6.976851E2,4.024861E1,3.0249054E1,1.4499446E2,3.5672128E2,3.409638E2,1.160023E3,6.0114996E2,2.647126E2,2.594728E2,1.0773664E2,1.5173616E2,5.496602E2,5.148977E1,2.6495745E1,2.3821686E2,1.1385258E3,2.1497135E1],"tree_param":{"num_deleted":"0","num_feature":"16","num_nodes":"27","size_leaf_vector":"0"}},{"base_weights":[1.2391584E0,1.5040905E0,5.904685E-1,7.857638E-1,-3.4631044E-1,9.035484E-1,2.5313886E-2,1.5452269E0,8.541477E-1,3.6944554E-4,-1.6731187E-4,1.6306118E0,1.3137622E0,-7.505586E-2,-4.8138242E-4,-3.5615166E-4,9.769935E-5,5.4692954E-4,3.4381065E-4,4.7968485E-4,3.238295E-4,5.226014E-1,1.2083572E0,4.071619E-4,1.0114098E-4,6.8151834E-4,6.128876E-4,3.9104559E-4,5.863344E-4],"categories":[0],"categories_nodes":[6],"categories_segments":[0],"categories_sizes":[1],"default_left":[0,0,0,0,0,0,1,0,0,0,0,0,0,0,0,0,0,0,0,0,0,0,0,0,0,0,0,0,0],"id":47,"left_children":[1,7,3,5,13,19,9,11,21,-1,-1,25,17,15,-1,-1,-1,-1,-1,-1,-1,23,27,-1,-1,-1,-1,-1,-1],"loss_changes":[5.411167E2,5.853174E1,1.6788559E2,6.7909515E1,3.7588173E1,1.5867554E1,4.2549572E1,3.9442383E1,1.5279808E1,0E0,0E0,8.72998E0,1.745575E1,3.293407E1,0E0,0E0,0E0,0E0,0E0,0E0,0E0,9.475878E0,2.4333038E0,0E0,0E0,0E0,0E0,0E0,0E0],"parents":[2147483647,0,0,2,2,3,3,1,1,6,6,7,7,4,4,13,13,12,12,5,5,8,8,21,21,11,11,22,22],"right_children":[2,8,4,6,14,20,10,12,22,-1,-1,26,18,16,-1,-1,-1,-1,-1,-1,-1,24,28,-1,-1,-1,-1,-1,-1],"split_conditions":[4.1E1,3.1E1,3.1E1,6.4E1,3.7E1,1E0,NaN,3.1E1,3.1E1,3.6944554E-4,-1.6731187E-4,1.9E1,3E0,3.2E1,-4.8138242E-4,-3.5615166E-4,9.769935E-5,5.4692954E-4,3.4381065E-4,4.7968485E-4,3.238295E-4,2.6E1,1E0,4.071619E-4,1.0114098E-4,6.8151834E-4,6.128876E-4,3.9104559E-4,5.863344E-4],"split_indices":[0,3,3,0,3,5,13,0,5,0,0,0,6,3,0,0,0,0,0,0,0,0,6,0,0,0,0,0,0],"split_type":[0,0,0,0,0,0,1,0,0,0,0,0,0,0,0,0,0,0,0,0,0,0,0,0,0,0,0,0,0],"sum_hessian":[3.1527766E3,2.237598E3,9.151785E2,7.5743353E2,1.5774498E2,6.5568726E2,1.0174631E2,2.1031099E3,1.344881E2,3.3248436E1,6.849787E1,1.5319463E3,5.7116364E2,1.2124594E2,3.649903E1,3.3498905E1,8.774704E1,4.87422E2,8.374163E1,1.3298352E2,5.2270374E2,7.074499E1,6.3743107E1,2.3247623E1,4.749736E1,6.5560944E2,8.7633685E2,3.8495434E1,2.5247675E1],"tree_param":{"num_deleted":"0","num_feature":"16","num_nodes":"29","size_leaf_vector":"0"}},{"base_weights":[1.2223396E0,1.3689759E0,8.633414E-1,6.7340267E-1,1.1311928E0,3.3289447E-1,9.021311E-1,1.516898E0,1.2380008E0,1.3130044E0,6.996539E-1,5.40341E-4,1.09188775E-4,3.4296775E-4,2.0053424E-6,5.465701E-4,4.3278578E-4,1.1785207E0,1.8049948E-4,5.286353E-4,3.2896324E-4,4.2972708E-4,5.568069E-4,1.5341002E0,1.1588476E0,3.1313286E-4,5.829553E-4,6.2383484E-4,5.621213E-4],"categories":[0,0,0,1,3,4,0,3,4],"categories_nodes":[1,5,6,8],"categories_segments":[0,1,2,6],"categories_sizes":[1,1,4,3],"default_left":[0,1,0,0,0,1,1,0,1,0,0,0,0,0,0,0,0,0,0,0,0,0,0,0,0,0,0,0,0],"id":48,"left_children":[1,7,3,5,17,13,19,23,9,15,11,-1,-1,-1,-1,-1,-1,21,-1,-1,-1,-1,-1,27,25,-1,-1,-1,-1],"loss_changes":[1.6290479E2,4.0965332E1,4.5364685E1,4.120807E1,1.1399261E1,3.79914E1,8.311157E0,4.5908203E0,4.6659058E1,1.4853149E1,4.1106033E1,0E0,0E0,0E0,0E0,0E0,0E0,5.6801453E0,0E0,0E0,0E0,0E0,0E0,2.9091797E0,4.8328247E0,0E0,0E0,0E0,0E0],"parents":[2147483647,0,0,2,2,3,3,1,1,8,8,10,10,5,5,9,9,4,4,6,6,17,17,7,7,24,24,23,23],"right_children":[2,8,4,6,18,14,20,24,10,16,12,-1,-1,-1,-1,-1,-1,22,-1,-1,-1,-1,-1,28,26,-1,-1,-1,-1],"split_conditions":[1E0,NaN,2.8E1,2.8E1,1.68E2,NaN,NaN,1.62E2,NaN,1.42E2,4E0,5.40341E-4,1.09188775E-4,3.4296775E-4,2.0053424E-6,5.465701E-4,4.3278578E-4,7.9E1,1.8049948E-4,5.286353E-4,3.2896324E-4,4.2972708E-4,5.568069E-4,1.2E2,2.18E2,3.1313286E-4,5.829553E-4,6.2383484E-4,5.621213E-4],"split_indices":[10,13,5,10,9,13,14,9,14,5,5,0,0,0,0,0,0,5,0,0,0,0,0,5,9,0,0,0,0],"split_type":[0,1,0,0,0,1,1,0,1,0,0,0,0,0,0,0,0,0,0,0,0,0,0,0,0,0,0,0,0],"sum_hessian":[3.116015E3,2.210359E3,9.0565594E2,5.319523E2,3.737037E2,2.1473357E2,3.172187E2,1.0330549E3,1.177304E3,1.0320742E3,1.4522972E2,5.5240883E1,8.9988846E1,8.0741875E1,1.339917E2,7.643667E2,2.6770755E2,3.4845685E2,2.524688E1,3.9744827E1,2.7747385E2,2.572208E2,9.123605E1,9.8256396E2,5.0490997E1,2.5245687E1,2.5245308E1,6.6762213E2,3.1494186E2],"tree_param":{"num_deleted":"0","num_feature":"16","num_nodes":"29","size_leaf_vector":"0"}},{"base_weights":[1.2290745E0,1.3827232E0,1.2740543E-1,1.564111E0,9.313344E-1,1.1565337E0,-2.60784E-1,1.1068254E0,3.5809353E-1,-6.2686466E-2,-1.3290805E0,-4.6302876E-4,2.5078618E-5,2.653299E-4,-1.644646E-5,1.7339828E0,1.4950849E0,5.4617407E-4,4.105578E-4,8.3718514E-1,1.3987992E0,5.9285626E-4,3.6808927E-4,4.2825638E-4,1.9696364E-4,-4.1884943E-4,-5.983968E-4,6.885484E-4,5.2687543E-4,4.8007708E-4,6.4216333E-4],"categories":[],"categories_nodes":[],"categories_segments":[],"categories_sizes":[],"default_left":[0,0,0,0,0,0,0,0,0,0,0,0,0,0,0,0,0,0,0,0,0,0,0,0,0,0,0,0,0,0,0],"id":49,"left_children":[1,3,5,15,7,19,9,17,13,11,25,-1,-1,-1,-1,27,21,-1,-1,23,29,-1,-1,-1,-1,-1,-1,-1,-1,-1,-1],"loss_changes":[5.3001904E2,2.2360254E2,1.5390115E2,2.0381836E1,7.9118286E1,6.9904175E0,5.917065E1,9.54657E0,2.355409E1,3.34019E1,5.9106445E-1,0E0,0E0,0E0,0E0,5.546875E-1,5.75E0,0E0,0E0,3.4961014E0,4.524002E-1,0E0,0E0,0E0,0E0,0E0,0E0,0E0,0E0,0E0,0E0],"parents":[2147483647,0,0,1,1,2,2,4,4,6,6,9,9,8,8,3,3,7,7,5,5,16,16,19,19,10,10,15,15,20,20],"right_children":[2,4,6,16,8,20,10,18,14,12,26,-1,-1,-1,-1,28,22,-1,-1,24,30,-1,-1,-1,-1,-1,-1,-1,-1,-1,-1],"split_conditions":[4E0,4E1,2.9E1,1.8E1,5.8E1,2E1,6.6E1,2.8E1,2E0,4E0,3.7E1,-4.6302876E-4,2.5078618E-5,2.653299E-4,-1.644646E-5,3.9E1,5.4E1,5.4617407E-4,4.105578E-4,4.5E1,6.6E1,5.9285626E-4,3.6808927E-4,4.2825638E-4,1.9696364E-4,-4.1884943E-4,-5.983968E-4,6.885484E-4,5.2687543E-4,4.8007708E-4,6.4216333E-4],"split_indices":[2,0,0,0,0,5,0,4,2,5,7,0,0,0,0,10,10,0,0,7,7,0,0,0,0,0,0,0,0,0,0],"split_type":[0,0,0,0,0,0,0,0,0,0,0,0,0,0,0,0,0,0,0,0,0,0,0,0,0,0,0,0,0,0,0],"sum_hessian":[3.1312441E3,2.7477615E3,3.834826E2,1.9583467E3,7.894147E2,1.0449001E2,2.7899258E2,6.036756E2,1.857391E2,2.3624384E2,4.2748753E1,2.3249624E1,2.129942E2,1.0349278E2,8.2246315E1,5.5886725E2,1.3994795E3,1.1048535E2,4.9319025E2,4.6996265E1,5.7493744E1,1.375484E3,2.3995472E1,2.5748049E1,2.1248219E1,2.0499527E1,2.2249224E1,5.3787146E2,2.0995749E1,3.574606E1,2.1747684E1],"tree_param":{"num_deleted":"0","num_feature":"16","num_nodes":"31","size_leaf_vector":"0"}},{"base_weights":[1.2281926E0,1.4988809E0,6.413103E-1,8.8017964E-1,-5.074109E-2,9.5113343E-1,-3.041163E-4,1.592505E-1,